1064 50
the 0.344209 0.440089 1.261666 -0.401032 -0.287814 -0.859018 -0.088091 -0.642741 -0.803781 1.070904 0.679110 1.094114 0.055304 -0.372578 -0.653479 -0.438018 -0.467312 0.410015 -0.284187 0.407082 -0.512869 -0.328730 -0.080917 -0.246549 0.413489 -0.201848 0.094882 1.279941 0.267065 0.035162 -0.920053 0.645942 0.143679 -0.668700 -0.077312 0.270016 -0.221365 0.955397 0.344188 0.744071 -0.018080 -1.601327 1.491346 -0.465592 0.449735 1.839528 0.978086 -1.111619 0.601036 -0.392759
and 0.597032 0.315248 0.610996 -1.305239 -0.672387 -1.380167 -0.609123 0.033982 -0.591556 0.303187 -0.056065 0.356408 -0.334884 0.385645 0.477491 -0.280618 -0.822962 -0.145551 0.353753 0.388547 -0.263571 0.109425 -0.867550 0.290809 0.245678 0.193421 0.857722 0.040648 0.411860 0.913782 -0.976656 -0.118769 -0.305035 -1.168746 -0.129503 0.056533 -0.090428 0.017829 -0.132461 0.366331 0.313117 -0.254289 0.327352 -0.332517 0.575953 0.868383 0.186004 -0.400532 0.388187 0.336230
a 0.516330 0.446566 -0.004819 -1.623676 -0.445069 -0.817726 -0.340238 -0.291100 -0.379789 -0.113373 -0.223962 1.245423 -0.737247 0.209960 0.427736 0.253902 -0.967966 0.277948 -0.014832 0.224084 -0.545510 0.284010 0.344447 0.356412 -0.257758 0.753400 0.861878 1.087358 -0.799034 0.464435 -0.826285 -0.228996 0.196372 0.662652 -1.143013 0.164395 1.021826 0.175057 -0.398652 0.396816 -0.076054 -0.867427 -0.223726 -1.345411 -0.610445 0.539831 -0.662638 -0.596243 1.037783 0.298995
of 0.860759 0.307361 0.597438 -0.560718 -0.660172 -2.172887 0.007415 -0.338116 -0.522957 0.441806 0.969442 1.653829 0.007515 -0.110077 -0.544399 0.435342 -0.456655 -0.130807 0.099719 0.193609 -0.255968 0.027906 0.437978 0.453668 -0.323019 0.373727 0.120515 0.820926 -0.600425 0.551480 -0.441862 0.008225 0.324132 1.165382 -0.306609 -0.500984 0.789388 -0.800091 1.055144 0.369031 -0.629620 -0.755267 -0.410094 -0.511011 0.318992 0.374121 1.038146 -0.965040 0.372859 0.055555
to 1.306778 -0.507067 0.608627 -0.424715 -0.906442 -0.725910 -0.250616 -0.575804 -0.418150 -0.450000 0.388583 0.119571 0.290352 -0.027583 1.423229 -0.274442 -1.697084 -0.006264 0.447509 -0.329765 0.405883 -0.287787 0.037467 -0.288837 0.362796 0.539458 0.033077 0.643196 0.043247 1.050198 -0.984009 0.419563 -0.330223 0.576345 0.626816 1.255479 -0.165206 -0.434889 0.683474 1.929688 1.458382 -0.976659 0.840105 -0.233603 -0.231566 0.199645 -1.007054 -0.938434 0.480573 0.395970
is 0.003852 0.129528 1.183920 -0.305263 -0.238345 -1.110029 -0.150949 0.556568 0.291328 0.238064 0.601717 0.995904 -0.241055 -0.435306 0.133597 -0.100451 -0.285561 0.313435 -0.072713 0.030848 -0.071443 -0.797799 -0.479857 0.705742 -0.635956 0.591361 0.615134 0.541422 -0.329926 0.179665 -1.154956 0.064613 -0.167686 -0.400298 -0.199830 0.870462 0.875835 0.869997 -0.103975 0.981073 -0.208858 -0.905273 -0.254985 -0.004598 0.183236 1.141630 0.423567 -0.289062 -0.289241 -0.126626
it 0.830964 -0.195527 0.982762 -0.427417 -0.457228 -0.934688 -0.355586 0.784200 -0.657742 -0.097545 -0.160341 -0.055410 -0.068310 -0.176778 0.245979 -0.628558 -0.166418 0.979935 0.010669 -0.148633 1.036810 -0.225678 -0.308496 0.188647 0.020912 0.793840 -0.006951 0.912341 0.113789 1.015309 -1.324922 0.085057 -0.185644 0.020516 -0.449910 0.195870 0.380044 0.413230 -0.079557 1.173023 0.912251 -0.632996 -0.407922 -0.181694 -0.253752 0.624739 -0.133042 -0.365497 0.184388 0.319717
in 0.824648 -0.168551 0.593995 -0.986827 -0.063539 -0.941135 -0.237643 -0.397033 -0.314263 0.444599 0.968638 0.532549 -0.411908 -0.002814 0.112660 0.152209 -1.240387 0.389936 0.422612 0.836828 0.508205 -0.023805 -0.224693 0.520292 0.411021 0.232352 0.789571 0.723939 -0.578070 0.482798 -0.641055 -0.069504 0.037475 -0.169222 -0.112267 -0.320879 -0.118797 -0.124718 -0.447296 0.183317 0.643853 -0.428493 0.376555 -0.247909 0.554888 0.603068 0.472080 -0.779150 0.230385 -0.219438
i 1.018402 -0.324791 1.158581 -1.185335 -1.168494 -1.034615 0.255433 0.490586 0.304970 0.988898 -0.194388 -0.556528 -0.069915 -0.550185 -0.556740 -0.372641 0.283026 1.243911 0.353770 0.099431 -0.338763 0.116485 -0.602031 -0.306711 0.371936 0.336768 -0.504837 1.398756 0.632634 0.399279 -1.344752 -0.665187 0.405316 0.290937 -0.384975 -0.309095 0.631130 0.609033 0.387134 0.025565 1.651357 -0.735859 -0.831789 -0.630800 -0.190612 -0.599083 1.074371 0.377068 0.116891 0.141560
this 0.648985 0.098123 0.893292 -0.806140 -0.550190 -0.984152 -0.394481 0.166618 0.372407 0.229152 0.614574 0.349417 -0.107510 -0.173425 -0.422023 0.042231 -0.432639 0.545992 0.378202 -0.043602 0.522090 -0.088948 -0.293496 -0.202161 0.152763 0.810978 -0.453173 0.926858 -0.094052 0.734763 -1.241619 0.261476 0.189353 0.357047 -0.729412 0.152567 0.857255 0.218543 0.301644 0.549759 0.521041 -1.135582 -0.635726 -0.192176 -0.258254 0.064164 0.192564 -0.456216 0.081941 0.043099
that 0.598172 -0.039446 1.076218 -0.156214 -0.386611 -0.912168 0.570377 0.466549 -0.541160 0.042317 0.007783 0.619289 0.036973 -0.312771 -0.097256 -0.238214 -0.338003 0.871472 0.107664 0.485296 0.477043 -0.136482 -0.174424 0.460482 0.497345 0.566264 0.043453 1.023701 0.327909 0.475926 -1.067808 -0.339801 -0.304368 0.279612 -0.061236 0.493577 0.047155 0.193404 -0.049511 0.656923 0.920168 -0.384885 0.002491 -0.018168 -0.267043 0.968652 0.671461 -0.255151 0.176725 -0.019889
s 0.653175 -0.124405 0.901787 -0.433631 0.020674 -0.609445 0.503976 0.470325 -0.805895 0.188688 0.016156 0.573150 -0.042108 -0.493535 0.208933 -0.626553 -0.292214 0.873220 -0.439117 0.499739 0.561667 -0.293714 0.065083 1.240660 -0.583114 0.700532 1.102373 0.383081 -0.328494 0.480803 -0.662113 -0.068202 -0.524913 0.117359 0.117975 0.280803 0.533671 0.188174 -0.565579 0.757131 0.265453 0.058626 -0.066342 0.115797 -0.053721 0.892317 0.358060 -0.399874 -0.200210 0.597606
movie 0.528550 0.113093 0.785923 -1.044495 -0.452629 -0.910025 -0.476340 0.361802 0.173944 -0.157744 0.490553 0.082109 -0.249202 -0.095794 -0.388452 -0.106849 -0.248716 0.714377 0.340535 0.266336 0.351995 -0.002015 -0.662313 -0.259689 0.596436 0.724212 -0.374924 0.809991 -0.121384 0.582034 -0.951667 0.255366 0.418256 0.005766 -0.698086 -0.047448 0.908028 0.497389 0.094123 0.507230 0.397109 -1.138796 -0.552836 -0.241724 -0.219214 0.601331 0.180472 -0.081472 0.049385 -0.243877
was 0.687022 -0.203056 0.835875 -1.059604 -0.092087 -0.861613 0.103512 0.648451 -0.001652 0.784199 0.559260 -0.029904 -0.574428 -0.045719 0.031636 -1.018681 0.265896 1.258842 -0.060897 0.041625 0.220251 0.133889 -0.189667 -0.059600 -0.086448 0.557558 -0.048443 0.668046 0.034967 0.465392 -0.857947 0.202992 -0.014125 -0.019228 -0.158001 0.118224 0.316218 0.591121 -0.446475 0.786354 0.501089 -0.668327 -0.230022 -0.090043 0.278032 0.595498 0.302527 0.171036 0.007392 0.265199
for 0.507877 -0.230652 0.432445 -0.751123 -0.238977 -0.686614 -0.164368 0.174759 -0.324598 0.021358 0.050783 0.201694 -0.346161 0.162055 -0.131483 0.241413 -0.815492 0.853482 0.450506 -0.174780 0.254438 0.190860 0.135000 -0.157215 -0.155418 0.588528 -0.037890 0.501337 -0.283061 0.542238 -0.268510 -0.066560 -0.336864 -0.225125 -0.359579 0.103784 0.620904 -0.355915 0.475007 0.614058 0.323144 -0.249479 -0.614159 0.163757 0.058152 1.075343 0.210673 -0.701780 0.078945 0.526274
but 0.628836 -0.058646 0.610595 -0.845004 -0.302087 -0.905451 -0.209668 0.518595 -0.235898 -0.141460 0.038991 0.422508 0.118127 -0.026206 0.153767 -0.322317 -0.272432 0.659001 0.102119 0.383314 0.239851 -0.348650 -0.356643 0.071284 0.320195 0.449450 0.436871 0.635416 -0.018219 0.326117 -0.598749 0.061233 -0.121305 0.096976 -0.426508 0.078308 0.488011 0.132866 -0.075707 0.751816 0.612030 -0.480480 -0.404226 -0.306776 -0.160534 0.778111 0.026972 -0.041601 -0.141135 -0.082784
as 1.022797 0.204574 0.930634 -1.275694 0.298333 -0.603795 -0.349584 0.753526 -0.916688 0.292599 0.065058 0.073863 0.023755 -0.061708 0.294808 -0.113473 -0.024631 0.769649 -0.161086 0.570658 -0.018313 -0.713206 -0.231965 -0.136833 -0.005826 0.356716 0.968494 0.251653 -0.720139 -0.340960 -0.473868 0.866175 0.287334 -0.623640 -0.496895 -0.497477 0.587658 -0.231507 -0.723914 0.881679 0.305221 0.140461 -0.040885 -0.109728 0.102245 0.708686 -0.013395 -0.604598 0.345205 0.328025
film 0.593700 0.030180 0.809833 -0.488270 -0.255906 -0.842593 -0.187493 0.347033 -0.096510 0.390919 0.478727 0.630368 -0.228818 -0.005753 -0.241867 -0.067632 -0.302980 0.575741 0.186808 -0.057326 0.285391 -0.072194 -0.057021 -0.063067 -0.052521 0.547638 -0.000184 0.846369 -0.082765 0.700350 -1.114276 0.097107 0.063222 0.300561 -0.426676 0.248099 0.787031 0.375056 0.058926 0.681631 0.237144 -0.783855 -0.352695 -0.351903 -0.051140 0.574092 0.194471 -0.592860 0.166806 -0.031102
with 0.590491 -0.193253 0.306263 -1.022187 -0.636854 -0.950405 -0.136399 -0.023500 -0.598118 0.087514 0.169255 0.749828 -0.255935 0.407646 0.277688 -0.174655 -0.882722 0.298948 -0.028631 0.628720 -0.154104 0.248532 -0.115112 0.104511 0.421026 -0.040093 0.743118 0.683571 0.115884 0.559111 -0.407409 -0.155305 -0.122987 0.090577 -0.253964 0.027349 -0.224325 -0.311708 -0.048616 0.653106 0.321580 -0.381767 0.300569 -0.431818 0.615712 0.465031 0.144373 -0.379866 0.068391 0.033512
you 0.552930 0.002902 1.516582 -0.083319 -0.798471 -0.761416 -0.011744 0.195582 -0.320795 -0.057212 -0.354476 -0.114616 0.198609 -0.458911 -0.109312 0.532315 -0.353196 0.196287 0.702662 -0.442145 0.787368 -0.556841 -0.325770 -1.230755 0.343520 -0.218985 -0.501912 0.293559 0.901633 0.186402 -1.055686 -0.101788 -0.189060 0.203616 -0.242476 0.074668 0.236229 -0.461792 0.671187 0.651271 1.531604 -0.381497 -1.245977 -0.295155 -1.049540 0.451010 -0.499034 -0.699087 0.617077 0.517679
on 0.888755 0.070438 0.736875 -0.731392 -0.343328 -0.757965 -0.151156 -0.019842 -0.386178 0.469600 0.192376 0.021437 0.154149 -0.057847 0.206538 -0.209351 -0.305892 0.485577 0.251561 0.181902 0.392721 -0.365204 -0.036716 0.253786 -0.327937 0.181297 0.325961 0.479284 0.052076 0.305473 -0.921984 0.423963 0.129872 -0.029295 0.139189 -0.201836 0.054949 -0.424891 -0.297170 0.709285 0.573800 -0.371195 0.385315 0.050583 0.297741 0.370451 0.358714 -0.611308 0.209892 0.598678
t 0.691223 -0.564960 0.781439 -0.528145 -0.972566 -0.141639 -0.298623 -0.514076 -0.534321 -0.997220 -0.442631 0.134269 1.192123 -0.750503 -0.374938 -0.332674 0.088999 0.523598 -0.047055 0.803040 0.356885 -0.654837 -0.309979 -1.306062 0.777992 0.960601 -0.163457 1.442959 0.874270 0.289420 -0.536341 -0.140533 -0.058940 0.079670 -0.998726 0.217587 0.478874 -0.072432 0.644530 0.781540 1.131682 -0.962117 -1.523916 0.561466 -1.382485 -0.054719 0.552728 -0.000741 -0.016841 0.327560
are 0.321229 0.513382 1.262372 -0.787578 -0.031162 -1.724989 0.154152 0.587801 -0.411738 0.150561 0.721290 0.589581 0.293650 -0.027853 0.217066 0.473614 -0.460636 -0.382962 0.497828 0.655329 0.175823 -0.568550 -1.034346 -0.493176 0.598388 -0.334438 0.713043 -0.394614 0.457563 -0.223925 -0.122483 -0.109985 -0.500969 -0.275038 -0.281991 0.494253 -0.327673 -0.286910 -0.109606 0.398275 0.165162 -0.167528 -0.455867 -0.246854 -0.091504 1.368794 0.092420 -0.613103 0.072478 -0.215425
his 0.212213 -0.243232 0.711647 -0.821395 -0.272658 -0.401394 0.216648 0.022147 -0.057405 0.729914 0.454231 0.700029 -0.024034 -0.099776 0.014707 0.148500 -0.943537 0.507400 -0.121748 0.231993 0.060516 -0.020231 0.132905 0.633684 -0.949340 0.017669 0.788783 0.263539 -0.307001 0.134199 -0.265514 0.274569 -0.199324 0.031026 0.391167 0.023405 0.292271 -0.618810 -0.156821 0.665577 0.129898 -0.004687 0.599104 0.051611 0.413304 0.245414 0.360676 -0.846391 0.224129 0.716104
he 0.250448 -0.485958 0.516312 -0.425105 -0.409187 -0.221690 0.638733 0.547289 -0.652120 0.327341 -0.485273 0.225466 -0.157028 -0.037166 0.005373 -0.755841 -0.299213 1.151004 -0.314862 0.196382 0.165794 -0.110507 0.426111 0.894975 -0.781492 0.252285 0.578433 0.646065 -0.071497 0.341217 -0.252633 -0.144805 -0.176682 0.385071 0.384744 0.095114 0.347853 -0.531360 -0.140146 1.236901 0.730762 0.143600 0.024440 0.024352 0.096282 0.325874 0.533774 -0.091205 -0.073377 1.004881
not 0.523202 0.072195 1.121920 -0.495994 -0.145727 -0.860108 0.017427 0.908409 -0.013296 0.178261 0.121168 0.339454 -0.020604 -0.273814 0.241239 -0.170957 -0.036746 0.710019 0.275687 -0.097816 0.452985 -0.635655 -0.272192 0.055568 0.148143 0.220225 0.253176 0.366696 0.100401 0.158190 -0.825879 -0.003389 -0.158442 0.314702 -0.332100 0.139966 0.426606 0.199260 -0.018797 0.811587 0.727581 -0.228210 -0.664454 -0.319325 -0.769640 0.647307 -0.234677 -0.279560 0.146244 -0.097480
one 0.431485 0.152741 0.832552 -0.340837 -0.142562 -0.812729 -0.030492 0.504921 0.433828 0.528468 0.532923 0.906103 0.241027 0.177354 -0.366231 0.417454 -0.419625 0.552807 0.588222 0.117329 0.366657 -0.224028 -0.258455 0.285172 -0.024098 0.585669 -0.018821 1.000228 -0.186823 0.465431 -0.465549 -0.157730 0.133422 0.729317 -0.096646 -0.075311 0.652221 -0.279031 0.348959 0.459119 0.057625 -0.596177 -0.188269 -0.244068 -0.240832 0.612282 0.802904 -0.716729 -0.125143 0.126382
be 0.797206 -0.057215 0.813649 -0.141386 -0.288090 -0.551772 -0.009395 0.667803 -0.125382 -0.007141 -0.004144 0.133463 0.305960 0.262774 0.600706 0.148165 -0.332441 0.774043 0.868050 -0.355306 0.219858 -0.261070 -0.187344 -0.190033 0.437180 0.375207 -0.399765 0.763831 0.134142 0.590981 -0.802925 -0.085118 0.002699 0.711885 0.216232 0.266267 0.474103 0.001576 0.474435 0.973945 0.675103 -0.334450 -0.327751 -0.683714 -0.808884 0.693484 -0.206430 -0.599974 0.266659 -0.116535
an 0.183047 -0.110992 0.373034 -0.663507 -0.268249 -0.379237 -0.050269 0.270101 -0.000841 -0.037663 0.155725 0.571560 -0.547049 0.058117 -0.467967 0.089359 -0.441586 0.507652 -0.096855 0.436413 0.144896 0.015956 0.086470 0.410222 -0.180606 0.367247 0.641282 0.425884 -0.274111 0.494451 -0.375598 0.051889 0.100444 0.080402 -0.244882 0.429226 1.022310 0.023240 -0.130782 0.514727 -0.138034 -0.206609 0.092386 -0.002419 0.268215 0.392677 0.263171 -0.278424 -0.067221 0.075308
all 0.707914 0.301694 0.924750 -0.776601 -0.466955 -1.245712 -0.148298 0.108234 -0.277751 0.240231 0.515204 0.570003 0.350720 -0.158284 -0.338942 0.022439 -0.204391 0.270357 0.213571 0.503399 0.443954 -0.216673 -0.419910 -0.108428 0.294225 0.104205 0.304727 0.471569 0.277958 0.176963 -0.679864 0.225194 0.079478 0.160407 -0.065614 -0.117289 -0.110852 -0.300452 0.108869 0.268684 0.393761 -0.416104 0.248417 -0.223486 0.312833 0.579795 0.398439 -0.426641 0.024330 0.064054
by 0.311310 0.255276 0.518737 -0.726677 -0.076407 -0.541957 0.019413 0.619689 -0.019264 0.602845 0.391261 0.631984 -0.027197 0.235842 0.317503 -0.214399 -0.353958 0.625799 0.329514 0.344826 -0.448417 -0.346849 -0.084892 0.152627 -0.296318 0.015491 1.006524 0.182991 -0.137771 0.096879 -0.313300 0.000771 -0.045170 -0.055515 0.223034 -0.006028 0.504806 -0.010282 -0.352585 0.610631 -0.386401 -0.052958 0.362265 -0.495343 0.152325 0.844962 0.030155 -0.428926 0.159108 -0.106883
have 0.691314 -0.144024 0.778985 0.060417 -0.337936 -0.827330 0.235002 0.774620 -0.470588 0.220747 -0.568419 -0.048857 -0.008759 0.479155 0.088590 -0.195984 -0.043506 0.874906 1.018747 -0.179343 0.176521 -0.069455 -0.056484 -0.100673 0.359345 -0.595206 -0.067139 0.995483 0.349268 0.464306 -0.434992 -0.715262 0.622905 0.667967 0.137649 -0.616967 0.260342 -0.247052 0.472838 0.541650 0.792422 -0.021260 -0.425758 -1.455943 -0.302468 0.960579 0.631055 -0.157521 0.222359 -0.125774
who 0.128675 -0.028455 0.388935 -0.825159 -0.543918 -0.398712 0.393806 -0.571938 -0.160924 0.245414 0.092045 0.677635 0.255856 -0.093773 -0.005769 0.246282 -1.151780 0.133677 0.011702 0.610797 0.085224 -0.251590 0.460088 -0.045268 -0.268056 0.101443 0.830356 0.522156 0.307714 0.498092 0.285477 -0.160094 -0.296639 0.220293 -0.195732 0.772870 0.517313 -0.732363 0.059559 0.724223 0.081506 -0.469196 0.257407 0.065058 -0.858280 0.659538 0.406647 -0.736293 0.356502 0.564744
so 0.499276 -0.018632 1.166820 -0.390554 -0.256342 -1.082710 0.092016 0.555951 -0.490568 0.247793 -0.139727 0.267633 0.017544 -0.380673 0.262113 -0.532899 0.265513 0.192503 -0.107513 0.144714 0.194324 -0.591522 -0.357975 -0.113278 0.002143 0.165182 0.610866 0.399856 0.127914 0.096018 -0.517570 -0.225570 -0.209048 0.077233 -0.371235 0.459420 0.019294 -0.021091 -0.070099 0.736014 0.487834 -0.164517 -0.764321 -0.181194 -0.203060 0.480142 0.274542 -0.156459 -0.182740 0.582835
they 0.744806 0.181868 1.117377 -0.597624 -0.458051 -1.038518 0.048945 -0.219583 -0.843074 -0.107265 -0.117091 0.212512 0.689659 -0.210761 0.049995 0.253376 -0.149863 -0.031866 0.605937 0.641481 0.404653 -0.590266 -0.609441 -0.598184 0.457818 -0.101470 0.351361 0.159393 0.779583 -0.311460 -0.353194 -0.164536 -0.133650 -0.036876 -0.071514 0.070253 -0.631164 -0.717197 0.094571 0.355251 1.116245 -0.065682 -0.506470 0.042687 -0.389412 0.632788 0.392751 -0.315473 0.245264 0.258586
like 0.514341 -0.085747 0.665421 -0.787074 -0.254209 -0.915070 0.009377 0.089277 -0.159686 0.157698 0.476441 0.189466 -0.046006 -0.188769 -0.346924 0.266450 -0.382895 0.307223 0.300038 0.484497 0.512829 -0.136139 -0.330242 -0.305132 0.213368 0.296955 0.316066 0.333362 0.127343 0.230231 -0.334723 -0.005595 -0.143712 0.082577 -0.578219 0.205002 0.089706 -0.349187 -0.068853 0.197143 0.389897 -0.224318 -0.615406 0.227543 -0.236641 0.223914 0.531161 -0.298231 0.047301 0.326844
at 0.523384 0.356880 0.384860 -0.744224 -0.225254 -0.934226 -0.432264 0.390150 0.346121 0.349421 0.351500 0.833704 0.312807 0.021922 -0.336733 0.244913 -0.294449 0.207022 0.143541 0.324684 0.550033 -0.029567 -0.331762 0.126092 0.206893 0.534178 0.011028 0.747277 -0.238722 0.249789 -0.622197 0.309863 0.062497 0.334971 -0.182685 -0.122548 -0.072877 -0.193246 -0.059462 0.113501 0.201201 -0.515227 0.545151 -0.113790 0.343541 0.595934 0.219007 -0.551276 -0.105715 0.208138
just 0.558195 -0.235494 0.720468 -0.718369 -0.606469 -0.453910 -0.132302 0.058177 -0.256760 -0.099513 -0.063810 0.028819 0.102786 -0.316101 -0.265355 -0.248135 -0.276421 0.679635 -0.112153 0.346754 0.307296 -0.198470 -0.197785 -0.031481 0.198893 0.613920 0.090120 0.778935 0.224311 0.487861 -0.807848 0.096469 0.104720 -0.043025 -0.268580 0.151587 0.615095 0.007239 0.028140 0.723281 0.763003 -0.537224 -0.296665 0.138364 -0.243803 0.169446 0.443891 -0.050242 0.060783 0.235013
from 0.398922 -0.162218 0.395715 -0.646326 -0.431209 -0.365597 0.071056 -0.248008 -0.400388 0.194721 0.191992 0.403643 0.144431 0.018524 0.117913 -0.127907 -0.719764 0.322502 -0.112079 0.392159 -0.050808 -0.071871 0.027028 0.196782 -0.048561 0.059771 0.442758 0.496156 0.112742 0.425550 -0.326110 0.028856 -0.109061 -0.028258 0.082294 0.132229 0.043390 -0.131567 -0.040603 0.604439 0.268250 -0.409189 0.410127 0.039160 0.012883 0.304816 0.330906 -0.431436 0.212539 0.223105
her 0.158444 -0.162039 -0.487969 -0.706098 -0.230270 0.081237 0.290641 -0.392744 -0.031505 0.022284 0.153833 0.822980 -0.065554 0.291301 0.191760 -0.596656 -1.163635 0.887000 -0.356629 0.781812 -0.121709 -0.171383 0.520138 0.718354 0.415293 0.521113 0.847167 0.187168 -0.251596 0.628658 0.222498 0.010762 -0.310560 0.006478 0.398979 0.312928 0.328060 -0.484397 -0.216430 0.495253 0.202337 -0.147903 1.032937 0.011322 -0.050603 0.467155 0.276325 0.095824 0.181959 -0.129494
about 0.561121 -0.011568 0.887546 -0.271950 -0.090278 -0.750686 0.086981 0.169569 -0.124549 0.277896 0.426927 0.476533 0.190850 -0.210350 -0.080156 0.140191 -0.250818 0.350600 0.186939 0.299314 0.124990 -0.149099 -0.401363 -0.351263 0.067978 0.436072 0.203356 0.576771 0.259590 0.116817 -0.560299 -0.152767 -0.146140 0.187649 -0.490713 0.444706 0.188399 0.010693 0.009171 0.564174 0.303532 -0.349438 -0.396914 0.047969 -0.021744 0.519303 0.530905 -0.540101 -0.025491 0.089632
or 0.421607 0.059307 0.438962 -0.347105 -0.097531 -0.416065 -0.168078 0.039261 -0.279025 -0.062551 -0.030522 0.419307 0.303255 0.057942 -0.032063 0.535015 -0.379839 -0.000825 0.535382 0.216667 0.069492 -0.273536 -0.133902 -0.390766 -0.155542 0.417566 0.478586 0.450200 -0.045932 0.094542 -0.083511 -0.182915 -0.205817 0.112850 -0.434064 0.326784 0.139388 -0.482320 0.168056 0.567959 0.124312 -0.141875 -0.620855 0.058813 -0.396965 0.577529 0.416902 -0.809831 -0.065699 0.532984
there 0.310956 0.016674 0.861634 -0.510603 -0.017948 -1.115320 0.006526 0.728287 -0.394184 -0.140447 0.352810 0.456553 0.130054 -0.084531 0.235375 0.083408 -0.189570 0.164183 0.405996 0.371972 0.202702 -0.319832 -0.576028 -0.304750 0.204086 0.251664 0.571102 0.269666 0.201066 0.045101 -0.290600 -0.247952 -0.479075 -0.191354 -0.547077 0.349647 0.133374 0.038310 -0.129945 0.670121 0.271270 -0.291569 -1.060663 -0.046286 -0.141176 1.014633 0.226102 -0.406200 -0.221357 0.025081
has 0.145643 -0.082383 0.190768 -0.424551 -0.057460 -0.335261 0.198115 0.429963 -0.092003 0.052448 -0.013234 0.596511 -0.195684 0.289663 -0.012124 -0.183817 -0.706902 0.593033 0.016874 0.375867 0.213353 0.048785 0.127424 0.532333 -0.044156 0.292192 0.572941 0.522998 -0.100046 0.628403 -0.076417 -0.192878 -0.027053 0.321179 0.070066 0.312594 0.730782 -0.165565 -0.187832 0.759535 -0.061736 -0.303715 0.406910 -0.310618 -0.070520 0.939126 0.280514 -0.363792 0.079728 0.181658
some 0.366043 -0.107281 0.327497 -0.681269 -0.188851 -1.205804 0.200296 0.554153 -0.530329 -0.092774 0.286394 0.314350 -0.127782 0.354586 0.174721 0.246438 -0.550593 0.468694 0.557555 0.062487 -0.006994 0.202456 -0.153029 -0.233737 0.262191 -0.104638 0.164530 0.243558 0.129092 0.393416 0.210220 -0.427757 -0.277188 0.191398 -0.227178 0.076687 0.219130 -0.427526 0.319555 0.610402 0.205554 -0.069854 -0.713283 -0.386768 0.020770 1.219913 0.317392 -0.399829 -0.039818 0.155661
out 0.732988 -0.010796 0.361021 -0.354528 -0.389440 -0.569356 0.016370 0.005522 -0.344488 0.133612 0.271849 0.066992 0.090192 -0.012300 0.263778 -0.342858 -0.181710 0.382270 0.140778 -0.015653 0.037316 -0.011342 0.056391 0.154329 -0.076058 0.120740 0.073200 0.389697 -0.024927 0.329982 -0.586433 0.207540 0.126295 0.189581 0.128834 -0.148946 0.064353 -0.366737 0.013858 0.525867 0.425808 -0.295440 0.146161 -0.118881 0.332016 -0.018521 0.148135 -0.144045 0.253755 0.228069
when 0.526403 -0.155295 0.565865 -0.513989 -0.360077 -0.683679 0.223362 0.128171 -0.654073 0.273920 -0.109122 0.216551 0.071121 -0.084872 0.064558 -0.386869 -0.259239 0.423393 -0.104242 0.339832 0.293896 -0.145652 -0.183552 0.373546 -0.061462 0.099097 0.459095 0.280428 0.100564 0.144552 -0.305245 -0.064034 -0.234045 0.031028 0.211532 0.100656 -0.364846 -0.421587 -0.233180 0.530291 0.778658 0.026206 0.195129 0.030809 0.365145 0.352875 0.302444 -0.153103 0.082087 0.610225
good 0.369748 0.179988 0.695151 -0.831102 0.111509 -0.891512 -0.324241 0.573206 -0.164055 0.140839 0.218284 0.511303 -0.338748 -0.032522 0.003057 -0.092934 0.063211 0.375120 0.016437 0.177757 -0.051684 -0.195786 -0.419223 -0.424366 0.120237 0.475355 0.420154 0.322313 -0.186239 0.057093 -0.450797 0.141970 -0.086482 -0.006174 -0.881565 0.138045 0.708158 0.356492 -0.262575 0.491103 -0.003812 -0.460204 -0.814036 -0.371699 -0.186514 0.872375 -0.088702 -0.219817 -0.068384 -0.006917
what 0.474164 -0.235950 0.816872 -0.401497 -0.417066 -0.619643 0.232277 0.193427 -0.242583 0.026340 -0.135946 -0.039241 -0.099901 -0.221061 0.014135 -0.109880 -0.173450 0.596724 0.254179 0.031186 0.328575 -0.151499 -0.210097 -0.050567 -0.052692 0.291487 0.035912 0.507476 0.308756 0.326042 -0.634369 -0.296010 -0.175674 0.020707 -0.066395 0.263872 0.261223 0.023325 0.005685 0.475561 0.688918 -0.240994 -0.543228 -0.021657 -0.281992 0.377791 0.307635 -0.069634 0.076119 0.276114
very -0.025189 0.194449 0.295618 -0.767829 0.278871 -0.748016 -0.276933 0.905108 0.405852 0.102380 0.378819 0.734028 -0.508145 0.165595 0.098161 -0.476294 0.094035 0.208947 -0.142795 0.084092 -0.021624 0.037672 -0.552477 -0.078080 0.076526 0.642079 0.401603 0.035658 -0.370342 0.454305 -0.437177 0.074963 -0.170825 -0.086144 -0.745890 0.227148 0.929024 0.813557 -0.454656 0.411028 -0.484656 -0.618702 -0.637869 -0.553112 -0.210999 1.001290 -0.502257 0.183124 -0.189550 -0.216465
even 0.170907 -0.002424 0.814578 -0.536532 -0.052420 -0.364135 -0.246050 0.486397 -0.172424 0.190333 -0.156997 0.260500 -0.027917 -0.065218 -0.187969 -0.146075 -0.036363 0.426544 0.093035 0.127073 0.288578 -0.323479 -0.306978 -0.592020 -0.095122 0.304672 0.311603 0.326396 0.149629 0.167125 -0.327964 0.098579 -0.260574 -0.143377 -0.602958 0.048868 0.364884 -0.006415 -0.033804 0.736695 0.291239 -0.323658 -0.878200 0.003588 -0.675240 0.590246 0.053331 -0.485838 0.105681 0.482141
if 0.264084 -0.011866 1.014120 -0.159069 0.050207 -0.385433 -0.062499 0.803382 -0.349877 0.154052 -0.261262 0.183489 -0.032658 -0.107090 -0.067147 0.059412 0.024567 0.478739 0.305705 -0.059731 0.534979 -0.471610 -0.223124 -0.554359 -0.090004 0.072693 0.204178 0.183312 0.148737 0.020122 -0.521742 0.113332 -0.181930 0.004879 -0.361920 -0.098697 0.463699 -0.179847 0.009234 0.857269 0.579564 -0.036644 -1.046902 -0.131638 -0.649327 0.748390 -0.165041 -0.575319 0.160568 0.426970
my 0.578924 -0.017129 0.394921 -0.347519 -0.352086 -0.438897 -0.131221 -0.116338 0.153495 0.489209 0.463035 -0.227928 -0.063327 -0.403774 -0.250653 -0.008223 0.142866 0.157247 -0.001655 -0.026804 0.336908 0.002168 -0.026058 0.025145 0.063598 0.326188 -0.346769 0.387914 -0.229022 0.217472 -0.677994 0.292537 0.198510 0.226968 -0.007244 -0.414355 0.455675 -0.064905 -0.016245 -0.219962 0.482973 -0.276968 -0.233680 -0.069815 0.212708 -0.334691 0.317781 -0.058406 0.011557 0.137562
story 0.204735 0.124882 0.592005 -0.501692 -0.120992 -0.692678 -0.230525 0.123632 -0.105011 0.012602 0.402984 0.628579 0.015841 -0.130009 -0.206961 -0.222127 0.010394 0.156982 -0.110650 0.413453 -0.121699 -0.136615 -0.364676 -0.150694 0.176784 0.378292 0.218732 0.554696 0.010181 0.255299 -0.564932 0.140860 0.061118 -0.089452 -0.511006 0.275633 0.360416 0.474442 -0.078347 0.443785 -0.220657 -0.687146 -0.201397 -0.079394 -0.041203 0.508117 0.258012 -0.184059 0.039071 -0.242006
time 0.787977 0.230084 0.489043 -0.707185 -0.408470 -1.093372 -0.302623 0.196144 -0.118795 0.181609 0.301121 0.514340 0.088559 -0.155765 -0.327404 0.015157 -0.040922 0.262459 0.099619 -0.084884 0.484306 -0.059631 -0.077865 0.130636 0.121987 0.405203 -0.124343 0.565203 -0.227013 0.177063 -0.664182 0.130798 0.126089 0.323062 -0.238886 -0.372105 0.268317 -0.184368 0.279875 0.032682 0.390282 -0.316253 -0.121524 -0.331232 0.344209 0.313944 0.142116 -0.439534 -0.020255 0.180614
more 0.555383 -0.152129 0.310442 -0.153179 0.302574 -0.281668 -0.279059 0.629327 -0.342621 0.237923 0.050539 0.141525 -0.475709 0.072593 0.510573 -0.275412 -0.186561 0.233384 0.567863 -0.172578 0.105016 -0.131988 0.027029 -0.269717 -0.085187 0.028251 0.469334 0.813876 -0.476591 0.255820 -0.700087 -0.261969 -0.027504 0.213428 -0.740732 0.089700 0.029506 0.134501 -0.244337 0.679026 0.253035 -0.046977 -0.866088 -0.560542 0.148680 0.171507 0.004291 -0.562182 -0.018801 0.158302
well 0.562296 0.076045 0.756328 -0.852273 -0.084963 -0.761193 -0.206170 0.756976 -0.280796 0.150710 0.146914 0.112842 0.020623 -0.168713 0.133266 -0.281443 0.107884 0.545617 0.061114 0.279813 0.147346 -0.476249 -0.445461 -0.156327 0.130306 0.274023 0.489200 0.246914 -0.104229 -0.015127 -0.570680 0.290383 0.058456 -0.284179 -0.420893 -0.151635 0.405890 0.062959 -0.335852 0.552451 0.346053 -0.105627 -0.402413 -0.103185 -0.063953 0.507391 -0.050479 -0.111399 0.025009 0.050759
really 0.205866 -0.178516 0.701860 -0.323582 -0.138256 -0.398458 -0.059897 0.453007 -0.071107 -0.323292 -0.107939 -0.094683 0.045375 -0.284162 0.029749 -0.444679 0.155477 0.604888 -0.004767 0.177966 0.143497 -0.344410 -0.367307 -0.465610 0.334617 0.412263 -0.109821 0.572903 0.270430 0.193070 -0.561303 -0.024579 0.027417 -0.152639 -0.483815 0.261455 0.542221 0.464795 -0.011493 0.582377 0.435679 -0.547757 -0.740041 0.088640 -0.552128 0.559732 0.174847 0.204721 -0.055762 -0.076782
up 0.431644 -0.215904 0.378799 -0.596456 -0.159015 -0.207993 0.031934 0.208838 -0.284843 0.048189 0.029594 -0.098607 0.035907 0.053606 0.309963 -0.016662 -0.542165 0.372254 0.044033 0.203484 0.280359 -0.082111 -0.040085 -0.040116 -0.123637 0.004563 0.569518 0.245556 0.078249 0.313271 -0.297209 0.005336 -0.262457 -0.190556 -0.099854 -0.024236 -0.039315 -0.149537 -0.264282 0.444860 0.556448 0.028861 -0.073349 -0.036464 0.019159 0.198321 -0.207366 -0.273369 0.112713 0.170119
can 0.323616 -0.239480 0.875777 -0.169532 -0.616439 -0.292390 0.165858 -0.263331 -0.147462 0.030715 -0.046444 0.014250 0.508186 -0.327716 -0.143603 0.121510 -0.315607 0.228513 0.202897 0.207344 0.193820 -0.276477 -0.218469 -0.521282 0.224966 0.154432 -0.236221 0.583716 0.750310 0.229616 -0.564307 -0.217131 -0.169240 0.173285 -0.077462 0.290700 0.149228 -0.219195 0.385488 0.487368 0.925485 -0.439443 -0.415687 0.147425 -0.626025 0.045915 0.264968 -0.319114 0.201667 0.359524
no 0.240682 -0.222089 0.581488 -0.090256 0.071870 -0.706520 0.306597 0.879777 -0.307746 -0.014586 0.086932 0.593692 -0.045000 0.192487 0.115046 0.122094 -0.324968 0.399114 0.339265 0.075303 0.258945 -0.142799 -0.085419 0.301708 -0.371253 0.392234 0.544785 0.357210 0.024965 0.324955 -0.157392 -0.401924 -0.494435 0.244308 0.085507 0.389851 0.284357 -0.295640 -0.002816 0.692485 0.068461 0.027064 -0.419135 0.021980 0.120124 0.788535 0.290844 -0.517799 -0.215324 0.286891
she 0.117461 -0.242010 -0.154354 -0.362461 -0.125759 0.078403 0.264103 -0.047835 0.043009 -0.214851 -0.016440 0.423634 -0.073022 0.147989 0.072931 -0.596766 -0.698377 0.831146 -0.289664 0.447935 0.180927 -0.113306 0.185908 0.498507 0.309003 0.478170 0.480647 0.332660 -0.209082 0.516118 -0.076703 -0.005938 -0.134466 0.018519 0.196984 0.236394 0.669386 0.036564 -0.158131 0.540068 0.299878 -0.332681 0.401569 -0.102271 -0.320769 0.537249 0.091192 0.251469 0.079537 -0.082641
bad 0.349176 -0.067408 0.956766 -0.526914 0.055277 -0.740855 -0.153248 0.601109 -0.256014 -0.149767 -0.066342 0.169126 0.032007 -0.348771 0.125250 -0.496859 0.395939 0.354113 -0.078289 0.304684 0.175000 -0.509858 -0.489900 -0.337538 0.198368 0.267452 0.408703 0.498429 0.012568 -0.008559 -0.427792 0.056263 0.006085 -0.161277 -0.736027 0.276973 0.238237 0.245676 -0.178715 0.710503 0.218916 -0.395601 -0.904361 0.039977 -0.371098 0.676954 0.195790 0.036493 -0.231467 0.171937
we 0.376594 -0.109118 0.771228 -0.197512 -0.650778 -0.488653 0.123529 -0.291452 -0.474686 -0.177477 -0.306745 -0.017648 0.236385 -0.068830 -0.038211 0.336635 -0.500714 0.198033 0.626846 -0.022712 0.327174 0.016605 -0.183059 -0.533946 0.307865 -0.261363 -0.169944 0.312192 0.779029 0.090861 -0.441500 -0.364568 -0.150886 0.098495 0.082211 0.187720 -0.267881 -0.392056 0.486373 0.231291 1.099242 -0.092420 -0.377639 -0.023761 -0.504015 0.360863 0.016329 -0.206113 0.552188 0.176984
had 0.425533 -0.307130 0.468782 -0.240857 -0.301737 -0.604725 0.323285 0.570296 -0.355678 0.223272 -0.303527 0.066216 -0.250765 0.307163 -0.128557 -0.232398 -0.226463 0.803910 0.520596 -0.093352 0.229784 0.296287 0.083825 0.073390 0.064928 -0.197526 0.010310 0.792097 0.342310 0.459312 -0.251305 -0.628078 0.152516 0.392874 0.239324 -0.230051 0.331865 -0.161187 0.248125 0.511436 0.663422 -0.138360 -0.146570 -0.663261 -0.037393 0.773188 0.525388 -0.083366 0.183294 0.097389
only 0.267920 0.051483 0.842377 -0.193891 -0.050697 -0.582926 0.150947 0.367395 -0.012560 0.314150 0.266669 0.503827 0.064516 -0.038426 -0.089675 0.021979 -0.316150 0.471547 0.178837 0.192740 0.232523 -0.240285 -0.278247 -0.018796 0.276731 0.136425 -0.015600 0.506360 0.192924 0.059859 -0.425206 -0.113947 -0.052063 0.303514 -0.128074 0.240110 0.201813 0.011770 0.016851 0.522395 0.390917 -0.411542 -0.009367 -0.157979 -0.182774 0.826475 0.266076 -0.439414 0.096459 -0.097954
would 0.421517 -0.228986 0.610640 0.119753 -0.274091 -0.313250 0.112214 0.553036 -0.105709 0.134055 -0.331269 -0.093593 -0.033782 0.147827 0.115931 -0.085726 -0.113005 0.657987 0.655719 -0.337114 0.311120 -0.065896 0.023922 -0.038448 0.139199 -0.077795 -0.328670 0.803341 0.215998 0.473723 -0.607441 -0.367549 0.248999 0.675894 0.099595 -0.106772 0.313802 -0.027572 0.235682 0.560299 0.820681 -0.172569 -0.426534 -0.737181 -0.396702 0.371462 0.141271 -0.282707 0.172808 0.025355
first 0.502164 0.094765 0.401024 -0.441706 -0.209969 -0.502885 -0.182138 0.193945 0.116550 0.451712 0.314920 0.220780 -0.001172 0.023655 -0.338697 -0.181384 -0.032029 0.448844 0.053026 -0.111007 0.307869 0.019771 -0.126199 0.193298 0.074303 0.331121 -0.177170 0.515688 -0.234487 0.164243 -0.454630 0.255665 0.186148 0.165667 0.040572 -0.212297 0.210052 0.138468 0.079557 0.126323 0.275029 -0.369614 0.347070 -0.220452 0.428214 0.371096 0.347302 -0.352202 -0.146166 0.083809
also 0.258849 -0.043582 0.396078 -0.548237 -0.144671 -0.398412 0.096023 0.303121 -0.100893 0.006377 0.045221 0.082153 -0.128305 -0.077551 0.059353 -0.161681 -0.263531 0.488401 0.029048 0.311417 0.178847 -0.097516 -0.249934 0.095912 0.161192 0.317394 0.320585 0.308472 0.046744 0.272913 -0.374635 -0.087568 -0.104029 -0.062269 -0.141133 0.169169 0.399788 0.248496 -0.233226 0.307436 0.355780 -0.341259 -0.184415 -0.130987 -0.164267 0.557396 0.045624 -0.000242 0.046960 -0.011748
because 0.321636 -0.173282 0.509185 -0.262625 -0.273959 -0.388725 0.165958 0.344377 -0.325609 0.081075 -0.013068 0.231138 -0.082160 -0.087517 -0.156036 -0.275621 -0.165942 0.663852 -0.043286 0.054329 0.239420 -0.109534 0.080414 0.118868 -0.307005 0.338791 0.204845 0.414303 0.039835 0.353879 -0.340025 -0.019585 -0.120228 0.227235 -0.121954 0.070962 0.366950 -0.041933 0.007290 0.689029 0.300791 -0.135187 -0.357328 0.074942 -0.150650 0.418289 0.352244 -0.148074 0.040362 0.417793
much 0.577417 -0.285602 0.584337 -0.141370 0.183846 -0.399923 -0.223419 0.741044 -0.516559 -0.081793 -0.228483 0.089531 -0.248188 -0.068498 0.593228 -0.723391 0.277407 0.406751 0.150207 -0.081068 -0.042499 -0.465658 0.006587 -0.484688 0.133261 0.100947 0.531563 0.945860 -0.351125 0.147875 -0.536397 -0.167524 0.080663 0.242855 -0.876149 0.122033 0.192795 0.150479 -0.004405 0.890299 0.295532 -0.073388 -1.072164 -0.504008 -0.251423 0.180172 -0.077847 -0.133516 -0.176840 0.117982
get 0.502512 -0.097064 0.580583 -0.316243 -0.646517 -0.278878 -0.057050 -0.479447 -0.557530 -0.298549 -0.270246 -0.049263 0.417852 -0.128534 0.153981 0.025553 -0.427693 0.002892 0.247221 0.138241 0.266597 -0.167882 -0.181963 -0.688899 0.310496 -0.000084 -0.015578 0.400692 0.611098 0.246544 -0.434860 -0.121323 -0.181309 -0.011353 -0.148412 0.163176 -0.147121 -0.319905 0.375106 0.495556 0.883247 -0.338908 -0.425045 0.049633 -0.592257 0.047223 -0.154725 -0.302713 0.443862 0.374506
its 0.396935 0.184680 0.451235 -0.387104 0.008714 -0.634698 -0.264878 0.545664 0.080978 0.250614 0.540997 0.355962 0.068862 0.049684 -0.092692 -0.017097 -0.080203 0.261227 0.159313 0.063217 0.230708 -0.129737 -0.344765 0.116949 0.100213 0.273337 0.056977 0.268108 -0.208483 0.280968 -0.473558 0.229706 -0.009159 0.140379 -0.185461 -0.126282 0.199788 0.240213 -0.098872 0.285323 -0.086939 -0.330538 0.007676 -0.187725 0.137456 0.470672 0.077564 -0.359514 -0.067163 -0.130700
me 0.558635 -0.331793 0.497830 -0.428088 -0.461034 -0.198593 -0.102249 0.015108 -0.292240 -0.102450 -0.090406 -0.274612 0.014725 -0.166994 0.034202 -0.270047 -0.145755 0.522136 0.056490 -0.117643 0.346481 -0.019229 -0.005368 -0.443151 0.006625 0.293839 -0.228991 0.548281 0.070860 0.355758 -0.515388 0.098253 -0.004230 -0.211425 -0.334101 0.000448 0.314803 0.052199 0.286683 0.739614 0.635330 -0.480729 -0.597313 0.129706 -0.332283 0.030452 -0.011574 -0.130701 0.147298 0.296396
their 0.657377 0.074044 0.273209 -0.479712 -0.347267 -0.702050 -0.163286 -0.241654 -0.308566 0.102001 0.085887 0.096623 0.393330 0.151753 0.139555 0.088293 -0.360381 -0.051300 0.278531 0.337430 0.258523 -0.213317 -0.383778 0.110403 0.148837 -0.140468 0.253143 0.088433 0.260262 0.188668 -0.341342 0.121342 -0.040134 0.011126 0.281638 -0.237692 -0.473088 -0.539943 -0.032521 0.037186 0.539587 -0.066417 0.559729 -0.062041 0.458265 0.071831 0.199770 -0.324860 0.020853 0.208174
which 0.078591 0.040041 0.530008 -0.230881 -0.245424 -0.367786 -0.208398 0.065621 0.275894 0.078056 0.309701 0.256618 -0.074895 -0.169448 -0.009976 0.176521 -0.311222 0.189395 0.271692 -0.027657 -0.036778 -0.131396 -0.203768 0.054512 -0.066298 0.233217 -0.041975 0.292047 -0.040777 0.136410 -0.572003 0.002314 0.029237 -0.007931 -0.003303 0.180556 0.524943 0.287116 0.142325 0.305978 0.094928 -0.481330 -0.069575 -0.052931 0.003508 0.241940 0.023050 -0.250825 0.079067 -0.160760
been 0.506094 -0.323871 0.308227 0.056703 -0.220109 -0.309959 0.274315 0.753542 -0.423780 0.163709 -0.694523 -0.135061 -0.317681 0.550646 0.211110 -0.378041 -0.184710 0.976477 0.772294 -0.154565 0.075164 0.190928 0.254048 0.158694 0.201638 -0.539654 0.225438 0.911931 0.126398 0.505304 -0.105722 -0.817767 0.568144 0.713685 0.295498 -0.648801 0.442729 -0.166546 0.184390 0.537185 0.580713 0.200449 -0.129526 -1.380684 -0.186008 0.900242 0.399985 -0.020123 0.250649 -0.135826
people 0.084719 0.064829 0.654344 -0.312730 -0.279041 -0.854656 0.307676 -0.248214 -0.138921 0.176214 0.338679 0.423418 0.278504 -0.204324 -0.176126 0.522364 -0.588333 -0.109762 0.251346 0.426329 0.221143 -0.230728 -0.040370 -0.276830 0.021418 0.008699 0.310654 0.256220 0.415316 0.132752 0.105327 -0.138792 -0.289449 -0.058337 -0.214974 0.464228 -0.058899 -0.505110 0.349487 0.284750 0.079998 -0.290946 -0.099289 0.226506 -0.449813 0.617337 0.601408 -0.595508 0.053031 0.250858
great 0.340040 0.122878 0.229995 -0.707280 -0.252275 -0.547364 -0.218563 0.078309 -0.151960 -0.074685 0.152699 0.450234 -0.045050 0.066870 -0.118504 -0.192820 -0.130689 0.459384 0.036920 0.362427 -0.163109 0.007121 -0.136237 0.000911 0.271712 0.359811 0.234231 0.498881 -0.157823 0.360903 -0.415792 0.077707 0.134694 -0.002590 -0.298172 -0.099719 0.463631 0.181437 -0.041154 0.272995 -0.022042 -0.464939 -0.109706 -0.338233 -0.029251 0.486530 0.261775 0.007930 0.077547 -0.061955
make 0.529543 -0.044443 0.386697 -0.356344 -0.327502 -0.362297 -0.334962 -0.043978 -0.235020 -0.349769 -0.052462 0.098812 0.160148 -0.034739 0.325180 0.189666 -0.433939 -0.037329 0.292611 -0.088696 0.442603 -0.254682 -0.119986 -0.540054 0.230936 0.246226 -0.063389 0.341638 0.041198 0.327276 -0.445285 0.121315 -0.103663 0.194231 -0.289223 0.207160 0.024873 -0.317284 0.254312 0.644118 0.554296 -0.353470 -0.451309 -0.095314 -0.407439 0.014259 -0.426507 -0.498730 0.204152 0.291240
don 0.370153 -0.171410 0.571671 -0.321491 -0.654550 -0.119583 -0.167007 -0.534288 -0.362329 -0.591024 -0.444903 -0.061915 0.772407 -0.554055 -0.387845 0.073888 0.091816 0.094321 0.069421 0.385830 0.084303 -0.320109 -0.218948 -1.036250 0.324157 0.386345 -0.152609 0.690931 0.750098 -0.052517 -0.281335 -0.291231 -0.112058 -0.022727 -0.687905 0.264657 0.288230 -0.104614 0.544947 0.276123 0.788258 -0.465717 -1.277240 0.439646 -0.982668 -0.123013 0.404293 0.053324 0.003381 0.359095
see 0.505725 -0.195907 0.627629 -0.284032 -0.390610 -0.387918 -0.208861 -0.139085 -0.307771 -0.252477 -0.069272 -0.151296 0.133292 -0.159982 0.111914 -0.028486 -0.462934 0.258661 0.350024 0.031356 0.463918 -0.130229 -0.232320 -0.392660 0.288601 0.264395 -0.177109 0.411583 0.300087 0.388649 -0.630275 0.013978 -0.080194 0.061414 -0.105392 0.176009 0.067781 -0.114180 0.192247 0.494940 0.940672 -0.388667 -0.438560 0.018513 -0.382175 0.106172 -0.172002 -0.220123 0.246820 0.230107
will 0.506685 -0.110565 0.298419 -0.254538 -0.427891 -0.260228 0.041118 0.132741 -0.205071 -0.125846 -0.280406 0.058152 0.163792 0.215194 0.299870 0.237378 -0.494793 0.458064 0.578720 -0.134397 0.262558 -0.019970 -0.026493 -0.124466 0.297725 0.219876 -0.178035 0.369287 0.199501 0.468189 -0.399767 -0.243770 -0.044033 0.279536 0.136843 0.049656 0.126150 -0.354262 0.415907 0.551900 0.716833 -0.072690 -0.241586 -0.367455 -0.501306 0.302330 -0.069975 -0.388248 0.339062 0.171497
made 0.445994 -0.180197 0.395837 -0.567297 -0.207292 -0.458543 -0.111471 0.420979 -0.041905 0.161621 0.236033 -0.038923 -0.305698 0.108994 -0.135872 -0.222461 -0.202593 0.809013 0.244814 -0.053118 0.412045 0.109334 -0.066281 -0.054616 0.012453 0.401562 -0.113854 0.528472 -0.213896 0.517709 -0.481903 -0.005592 0.132595 -0.084110 -0.301330 -0.181874 0.622244 0.177122 0.027092 0.532075 0.173241 -0.433463 -0.387647 -0.137441 -0.065870 0.446185 0.256039 -0.130223 0.042632 -0.012583
other 0.700786 0.012905 0.207871 -0.278255 -0.030172 -0.640599 -0.078471 0.096289 -0.329443 0.189509 0.345658 0.218775 0.156826 0.086934 -0.013748 0.147938 -0.275715 0.019105 0.585423 0.333959 0.082950 -0.127205 -0.141369 -0.049204 0.183594 -0.064859 0.288822 0.487630 -0.058405 0.190441 -0.310674 -0.131827 -0.106291 0.276979 -0.152039 -0.145210 -0.168006 -0.379957 -0.095779 -0.021516 0.245095 -0.003976 -0.161003 -0.073823 0.449289 0.210865 0.557507 -0.447674 -0.222381 0.126036
than 0.509549 -0.136012 0.211472 0.070144 0.439705 -0.143129 -0.146965 0.800661 -0.336539 0.373336 0.049386 -0.067951 -0.494858 0.042719 0.343833 -0.356080 0.059443 0.328434 0.590974 -0.154988 0.115310 -0.125696 -0.011095 -0.067688 -0.005364 -0.023500 0.296928 0.854982 -0.476936 0.216586 -0.777461 -0.286679 0.017228 0.215125 -0.649383 -0.067624 -0.010571 0.236053 -0.303192 0.397773 0.302580 0.135437 -0.833110 -0.495440 0.311716 0.088717 0.245681 -0.469412 -0.124884 0.074647
into 0.209596 0.015796 0.090533 -0.305670 -0.254497 -0.116797 -0.091016 -0.376371 -0.262041 -0.086066 -0.066451 0.149796 0.039279 -0.009205 0.189618 -0.112755 -0.297623 0.009822 -0.109415 0.120659 -0.058467 0.139490 0.054666 -0.100641 0.153543 0.166019 0.114353 0.268916 0.144945 0.186736 -0.346801 -0.013863 -0.093957 -0.068466 -0.121535 0.173981 -0.039977 0.086957 0.070418 0.198920 0.227352 -0.317504 0.193325 -0.092678 -0.184797 0.069616 -0.201095 -0.145550 0.360496 0.188293
movies 0.298680 0.001675 0.441551 -0.374002 -0.165612 -0.887598 0.023364 0.241256 0.123214 0.392389 0.559478 0.403836 0.011639 -0.018120 -0.305983 0.244828 -0.083700 0.167985 0.322486 0.208762 0.279122 0.070805 -0.213321 0.098600 -0.035780 -0.053512 0.111273 0.356322 -0.173224 0.130504 -0.163585 -0.049461 0.279529 0.228759 -0.257819 -0.396915 0.219071 -0.384140 0.199225 -0.007685 -0.051858 -0.113271 -0.332086 -0.110666 0.215552 -0.011464 0.682419 -0.263690 -0.100296 -0.044653
any 0.397484 -0.099210 0.147483 -0.199303 -0.272391 -0.399213 -0.196392 0.158019 -0.274345 -0.061320 -0.017113 0.301581 0.132056 0.057578 -0.035316 0.049253 -0.170505 0.248596 0.184686 0.104025 0.095255 -0.004124 -0.045749 -0.248932 0.117192 0.181130 0.032065 0.639437 -0.028786 0.292161 -0.269426 -0.139683 0.058272 0.315327 -0.237876 -0.123283 0.211422 -0.102303 0.256210 0.363702 0.200973 -0.269744 -0.244522 -0.164372 -0.109123 0.159735 0.227447 -0.381880 0.051828 0.097972
him 0.258818 -0.259871 0.201581 -0.291238 -0.391745 -0.115286 0.181745 -0.139517 -0.383377 0.100408 -0.191158 0.086145 -0.032678 0.066923 0.250259 -0.172696 -0.607461 0.302968 -0.022261 0.055147 0.059590 -0.092510 0.140663 0.220390 -0.202773 0.013309 0.269348 0.275126 0.053472 0.285752 -0.236690 0.014820 -0.144878 0.141969 0.363981 0.209149 -0.156845 -0.420004 0.055816 0.645480 0.668962 -0.043922 0.281215 -0.004086 0.107607 -0.005875 -0.045323 -0.274134 0.237504 0.452644
how 0.289183 -0.167606 0.615053 -0.120700 -0.296525 -0.478404 -0.020281 0.070408 -0.200034 -0.139423 0.107413 0.094681 0.166179 -0.076703 -0.076568 -0.061598 -0.197646 0.086006 0.170132 0.053262 0.239499 -0.174129 -0.213863 -0.292814 0.126433 0.188623 -0.112827 0.395233 0.334914 0.346318 -0.486898 -0.063849 0.017362 0.152616 -0.184839 0.180536 0.167944 -0.068225 0.264801 0.486955 0.397740 -0.341662 -0.496971 -0.004521 -0.188649 0.126046 0.190843 -0.149408 -0.014880 0.076234
do 0.372262 0.000368 0.571178 -0.302303 -0.354992 -0.462179 -0.017002 0.050496 -0.313265 -0.130101 -0.196549 0.122572 0.202089 -0.183703 0.176800 0.024771 -0.169485 0.214066 0.243567 0.057756 0.232977 -0.314329 -0.154891 -0.267828 0.158549 -0.028430 0.109432 0.338426 0.377834 0.063566 -0.443825 -0.169142 -0.119293 0.255401 -0.242446 0.101714 -0.019269 -0.145767 0.150145 0.346381 0.743235 -0.089101 -0.518077 -0.147006 -0.418139 0.125131 -0.182710 -0.118288 0.194819 0.112222
most 0.174590 0.134210 0.401458 -0.115198 -0.038005 -0.633408 0.160290 0.139033 0.104205 0.432925 0.273237 0.437684 -0.010635 -0.117742 -0.355406 0.141372 -0.115655 0.299268 0.142214 0.175467 0.027983 0.011346 -0.008054 0.304184 -0.093012 0.148619 0.061078 0.430993 -0.125259 0.112265 -0.106500 -0.154576 0.141253 0.117211 -0.051499 -0.238299 0.341250 0.022493 0.270254 -0.003653 -0.205131 -0.181823 -0.010656 -0.203499 -0.082323 0.433760 0.748012 -0.233363 -0.094301 -0.108607
watch 0.428257 -0.099732 0.417122 -0.122660 -0.355904 -0.424666 -0.297478 0.155723 -0.058341 -0.058649 -0.047830 -0.100784 -0.075107 -0.055977 0.063422 0.055062 -0.272586 0.127462 0.372306 -0.344321 0.349117 -0.037614 -0.106347 -0.253608 0.051682 0.310250 -0.391896 0.393418 0.063957 0.494190 -0.709078 0.019021 -0.007562 0.166549 -0.269329 0.100714 0.272087 -0.042602 0.365670 0.458367 0.537140 -0.355140 -0.601145 -0.132674 -0.178467 0.032150 -0.172315 -0.396950 0.121389 0.215208
actors 0.143259 0.300435 0.435851 -0.529255 -0.043026 -0.684755 -0.067897 -0.153989 -0.227107 0.092418 0.400308 0.316941 0.243809 -0.113591 -0.068130 0.126512 -0.255182 -0.199298 0.088598 0.503968 0.098313 -0.250724 -0.328666 -0.340939 0.278036 -0.054555 0.405682 -0.051288 0.221043 -0.142858 -0.036042 0.205743 -0.150745 -0.258839 -0.253791 0.172473 -0.219156 -0.213371 -0.062805 0.009307 -0.044950 -0.264969 0.088511 0.090546 -0.051861 0.499433 0.240683 -0.280330 0.016434 -0.070354
character 0.112232 0.048029 0.510940 -0.175820 0.096601 -0.516190 0.242111 0.316496 0.043176 0.300094 0.484025 0.488293 -0.046471 -0.134858 -0.000195 -0.191764 -0.291573 0.301303 -0.137463 0.124957 0.193318 -0.222467 -0.171683 0.664873 -0.306170 0.156293 0.430777 0.008494 -0.218224 0.115921 -0.213082 0.155331 -0.140637 0.037353 0.330538 0.271578 0.170494 0.136645 -0.151084 0.415581 -0.170010 -0.225251 0.467325 -0.116899 0.209460 0.612109 0.149520 -0.309103 -0.081121 -0.015672
think 0.299134 -0.164471 0.849289 -0.165912 -0.482529 -0.603152 0.276158 0.167428 -0.163230 -0.030129 -0.179954 0.061980 0.230875 -0.434358 -0.191029 0.018337 0.084872 0.417312 0.168340 0.108705 0.242111 -0.325387 -0.211964 -0.338804 -0.029858 0.265213 -0.099744 0.612282 0.486428 0.080349 -0.576328 -0.328078 -0.151052 0.191650 -0.354084 0.278098 0.288936 -0.000664 0.270482 0.399994 0.740888 -0.267005 -0.963864 0.069401 -0.544813 0.157228 0.439576 -0.013639 0.003792 0.254124
too 0.225589 -0.133514 0.532874 -0.115333 0.230771 -0.288467 -0.067237 0.579775 -0.368868 -0.005012 -0.166017 0.091673 -0.132874 -0.077192 0.394290 -0.697274 0.212037 0.307229 -0.171882 0.107594 0.031087 -0.373447 -0.001555 -0.012659 0.103208 -0.051566 0.533758 0.273994 -0.175400 0.049385 -0.082503 0.122919 -0.004773 -0.101344 -0.354683 0.138875 0.014691 0.083987 -0.167701 0.607696 0.069859 0.059849 -0.307064 -0.033179 -0.127692 0.396453 -0.128005 0.028669 -0.225357 0.064512
way 0.372038 -0.099119 0.215385 -0.170233 -0.068038 -0.314257 0.039860 0.159176 -0.213478 0.185861 0.098012 0.172846 -0.184404 -0.015074 0.139175 -0.111231 -0.272248 0.345629 0.095845 0.133241 0.001312 0.104111 -0.002941 0.366626 -0.027360 0.138429 0.282769 0.429496 -0.198802 0.287213 -0.424622 -0.152800 -0.014184 0.048719 0.075655 0.055019 0.027321 0.135952 -0.084546 0.266079 0.278991 -0.162282 0.281776 -0.263063 0.233982 0.220104 0.182746 -0.260530 0.063746 -0.026023
off 0.328644 -0.115553 0.305060 -0.294291 -0.282483 -0.086289 -0.066086 0.007851 -0.499471 -0.106813 -0.234723 0.068949 0.093729 -0.014595 0.223870 -0.203111 -0.289029 0.220467 -0.111331 0.067981 0.184909 -0.280447 0.066161 0.006815 -0.127316 0.117199 0.370607 0.073531 0.021692 0.140619 -0.252206 0.244513 -0.081075 -0.029066 0.109209 0.059038 0.015340 -0.346027 -0.072443 0.661598 0.457754 0.005942 0.132141 0.042124 -0.038345 0.169916 -0.180065 -0.323195 0.135553 0.430820
then 0.159905 0.135900 0.451484 -0.327226 -0.071396 -0.440050 -0.268251 0.217456 -0.216308 -0.094631 -0.027816 0.043665 -0.038539 -0.022551 0.304350 0.001420 -0.302597 0.013878 0.214610 0.000085 0.198051 -0.259507 -0.335141 -0.122411 0.064661 0.072672 0.214088 -0.119721 0.172208 0.164963 -0.503805 0.056551 -0.299011 -0.319364 -0.103097 0.182344 0.007336 -0.048525 -0.114940 0.405009 0.424629 -0.099416 -0.292226 0.035902 -0.018633 0.285920 -0.424857 -0.162936 0.195605 0.121534
best 0.117187 0.223833 0.481938 0.008738 0.051148 -0.633728 0.033571 0.134183 0.408160 0.575710 0.674069 0.732621 0.163722 -0.086153 -0.464976 0.266617 -0.132038 0.201153 0.111361 0.098890 0.225542 -0.067700 -0.195162 0.264933 -0.096005 0.221318 -0.139850 0.461729 -0.261676 0.053344 -0.294696 0.189894 0.194668 0.206438 -0.023815 -0.113792 0.211299 0.059338 0.168002 -0.022894 -0.268288 -0.455566 0.297674 -0.061101 0.233665 0.390955 0.678121 -0.410997 -0.171983 -0.206473
could 0.314434 -0.194770 0.408927 0.169763 -0.251490 -0.183941 0.095778 0.508169 -0.238389 0.010233 -0.584965 -0.371736 -0.151814 0.269183 0.187035 -0.285640 0.123323 0.709341 0.575264 -0.327550 0.184942 -0.018369 -0.040649 -0.079198 0.320584 -0.314211 -0.277592 0.652959 0.292517 0.358873 -0.461466 -0.466211 0.409332 0.430545 0.099404 -0.391896 0.194760 0.154280 0.230646 0.284989 0.849495 -0.000987 -0.445009 -0.910599 -0.375926 0.436582 0.022129 0.126034 0.184164 -0.109714
them 0.489682 0.125356 0.334707 -0.514888 -0.398982 -0.720337 -0.098595 -0.199351 -0.342458 0.099415 0.073934 0.256067 0.198147 0.182889 0.063636 0.202467 -0.432827 -0.076147 0.353300 0.272037 0.057973 -0.002081 -0.186208 -0.115759 0.220262 -0.115338 0.187590 0.277353 0.246999 0.254202 -0.302134 -0.158712 -0.063565 0.116570 -0.006862 -0.136887 -0.242021 -0.475248 0.133400 0.139542 0.336616 -0.120186 0.044122 -0.200119 0.139974 0.166464 0.130612 -0.375261 0.164636 0.214024
over 0.250560 0.209512 0.353474 -0.552549 -0.245848 -0.528188 -0.054644 0.027188 -0.361148 0.239197 0.321362 0.075240 -0.038330 -0.093108 -0.095033 -0.154068 -0.233652 0.000465 -0.131035 0.394298 0.233569 0.024254 -0.267392 0.344489 -0.009617 -0.131850 0.484861 0.010645 0.188317 0.130434 -0.375247 0.287273 -0.053544 -0.187874 0.219910 0.007368 -0.089957 -0.185649 -0.316461 0.129913 0.017464 -0.095593 0.728731 -0.118325 0.449180 0.257912 0.066583 -0.152365 0.155231 0.182862
after 0.156607 0.125731 0.169943 -0.192602 -0.121289 -0.342326 -0.005212 -0.026242 0.209382 0.305249 0.318846 0.341901 -0.007270 0.072377 -0.189512 0.034235 -0.240508 0.214456 0.101664 0.047413 -0.061533 0.034123 0.083944 0.267415 0.018159 0.157170 -0.004944 0.275729 -0.152185 0.173079 -0.175513 0.031820 0.093882 0.216840 0.046654 -0.045887 0.208247 -0.053546 0.167449 0.037623 -0.094292 -0.259911 0.300246 -0.200475 0.224848 0.245599 0.367310 -0.191704 0.019494 -0.029024
does 0.168816 0.028391 0.417532 -0.124796 -0.056755 -0.379284 0.025525 0.440886 -0.135723 0.011758 -0.055578 0.310381 -0.125753 -0.008441 0.139949 -0.313463 -0.020958 0.415446 -0.095665 -0.062309 0.266088 -0.307510 0.031646 0.294120 -0.125179 0.158324 0.249200 0.190244 -0.143032 0.257459 -0.290304 0.067969 -0.013363 0.212476 -0.082150 0.112416 0.309916 0.086179 -0.117361 0.577984 0.165553 -0.074672 -0.111484 -0.163232 -0.156765 0.396840 -0.136968 -0.059857 -0.000719 -0.005749
ever 0.436058 -0.271662 0.546136 0.032452 -0.391309 -0.338359 0.057726 0.578093 0.111638 0.283984 -0.358255 -0.355061 0.060688 0.109788 -0.263460 0.095916 0.088291 0.664080 0.880741 -0.171230 0.352709 0.089149 -0.336302 -0.356332 0.405994 -0.173045 -0.570641 0.810619 0.295715 0.348522 -0.439947 -0.617308 0.597514 0.175750 -0.055779 -0.535157 0.420867 0.096659 0.528865 0.242440 0.808625 -0.169287 -0.689213 -0.760787 -0.609807 0.184706 0.697323 0.030165 0.112063 -0.198927
seen 0.366756 -0.375828 0.456048 0.005301 -0.483150 -0.383365 -0.004768 0.636130 0.131069 0.383073 -0.480065 -0.473513 0.024036 0.152025 -0.237524 -0.128553 0.142081 0.741090 0.979307 -0.169327 0.227609 0.202000 -0.401115 -0.326883 0.468132 -0.479309 -0.544995 1.034595 0.405690 0.387910 -0.448013 -0.887566 0.718171 0.160336 -0.015910 -0.632313 0.300985 0.251778 0.504326 0.178132 1.002150 -0.179988 -0.646445 -0.998087 -0.422767 0.201573 0.862284 0.230494 0.044280 -0.270652
acting -0.027606 0.125933 0.488278 -0.252905 0.078620 -0.493776 -0.106367 0.338773 0.100579 0.470104 0.214170 0.156349 -0.161550 -0.041076 -0.220932 -0.399529 0.419090 0.274881 0.109201 0.147428 -0.290292 -0.055759 -0.399562 -0.042857 0.072527 -0.029163 0.106707 0.334108 0.093003 0.035290 -0.440749 -0.090778 0.190297 -0.395025 -0.110515 0.028099 0.188568 0.643997 -0.080598 0.084631 -0.163186 -0.453259 -0.069131 -0.291822 0.286172 0.593841 0.557344 0.092257 -0.096570 -0.203255
characters -0.008819 0.293627 0.509439 -0.262085 -0.024550 -0.638133 0.088867 0.308035 0.064126 0.240477 0.517734 0.213613 0.224242 -0.021081 -0.078841 0.010696 -0.085023 0.004804 0.109116 0.202328 -0.075783 -0.241101 -0.575742 0.059356 0.168305 -0.261765 0.228287 -0.189560 0.254068 -0.094127 -0.102466 0.074267 -0.133252 -0.303446 0.189298 0.283525 -0.166230 0.277002 0.019551 0.157555 -0.116887 -0.311305 0.439047 -0.156342 0.204151 0.748786 0.197574 -0.243950 -0.002174 -0.317929
were 0.167564 0.167732 0.569930 -0.448613 0.085877 -0.611238 0.055015 0.049655 -0.389569 0.107749 0.206583 0.151157 0.140381 -0.067389 -0.011908 0.064298 -0.055585 -0.069107 0.226493 0.509310 0.168409 -0.252795 -0.370509 -0.248080 0.126416 -0.080699 0.447628 -0.179546 0.299598 -0.247562 0.008218 0.053726 -0.235729 -0.351757 -0.144801 0.047605 -0.397010 -0.253848 -0.266296 0.011508 0.142844 0.025000 -0.175379 0.186139 0.080056 0.549905 0.293643 -0.140290 -0.071436 0.073040
better 0.361601 -0.085364 0.343871 0.084945 0.214167 -0.207206 -0.130673 0.705249 -0.350530 0.183998 -0.171897 -0.099606 -0.287872 0.136243 0.351612 -0.390833 0.162303 0.412585 0.538857 -0.200553 -0.044389 -0.160234 -0.090211 -0.282806 0.187562 -0.179716 0.060327 0.794299 -0.160085 0.176068 -0.598104 -0.266808 0.141501 0.234635 -0.438981 -0.130407 0.079838 0.324318 -0.018167 0.455851 0.280863 -0.028904 -0.618005 -0.746937 -0.025981 0.373836 0.061429 -0.299995 0.038005 -0.130389
go 0.347765 -0.110165 0.352688 -0.227441 -0.414840 -0.164315 -0.100513 -0.366837 -0.142675 -0.112175 -0.126146 -0.234334 0.137285 -0.008757 0.157496 0.062945 -0.350336 0.018881 0.294134 -0.064991 0.166067 -0.030013 -0.079730 -0.414752 0.237356 -0.134185 -0.282503 0.270020 0.322004 0.168822 -0.430859 -0.068056 0.034823 -0.047318 0.036159 -0.053106 -0.027330 -0.151683 0.254724 0.180302 0.747401 -0.281831 -0.172323 -0.103046 -0.248329 -0.021284 -0.168321 -0.183817 0.299872 0.186470
part 0.283412 0.200624 0.489633 -0.189625 0.112111 -0.603402 0.042347 0.261679 0.172730 0.546228 0.475413 0.604358 -0.075115 -0.161648 -0.358892 -0.042235 -0.016403 0.561312 -0.048006 0.101013 -0.040214 -0.081649 0.064202 0.261565 -0.137905 0.387938 -0.011290 0.559729 -0.393365 0.080908 -0.366812 0.204561 0.241720 0.130879 -0.140192 -0.170890 0.593497 0.234814 0.150285 0.214772 -0.306745 -0.449659 0.140151 -0.168897 0.070408 0.565864 0.633714 -0.317969 -0.005631 -0.191608
director 0.095709 0.058924 0.076711 -0.361170 -0.132221 -0.169120 0.097467 -0.023061 -0.167438 0.201964 0.003461 0.259829 -0.150546 -0.020290 -0.050824 -0.055179 -0.211025 0.216341 -0.206721 0.116469 -0.085250 0.038937 0.256939 0.211745 -0.221684 0.120279 0.290626 0.230865 -0.055601 0.209886 -0.105565 0.029764 -0.038197 0.022150 -0.100480 0.171564 0.299619 0.053813 -0.112453 0.230640 -0.066363 -0.240737 0.155234 -0.138652 -0.016007 0.303423 0.155859 -0.198673 0.054418 0.189212
life 0.587572 0.120129 0.362057 -0.536732 0.040752 -0.394118 0.000073 0.014041 -0.357127 0.295362 0.457198 0.243815 -0.038816 -0.270895 -0.039554 -0.000802 -0.271927 0.281738 -0.117931 0.523820 0.408991 -0.223967 -0.059792 0.327957 0.156874 0.343625 0.493746 0.179457 -0.462444 0.079469 -0.292474 0.261678 0.005362 -0.047147 -0.038695 -0.263700 0.152837 -0.170574 -0.470110 0.084077 0.193490 -0.009469 0.081017 -0.018535 0.218493 0.251304 0.275561 -0.330700 0.002018 0.046351
never 0.163425 -0.385420 0.152902 0.032849 -0.456730 -0.162862 0.110955 0.443754 0.094593 0.080384 -0.559307 -0.338131 -0.016721 0.170253 -0.189695 -0.175647 -0.074431 0.582167 0.543209 -0.135052 0.214740 0.178814 -0.189837 -0.164644 0.255176 -0.216129 -0.343668 0.691070 0.385568 0.400691 -0.256249 -0.625506 0.340404 0.190244 0.053321 -0.264013 0.325654 0.055303 0.369426 0.251745 0.751323 -0.092797 -0.434798 -0.555080 -0.391117 0.151835 0.461445 0.284188 0.032256 -0.076055
scene -0.000621 0.056988 0.016411 -0.335460 0.054799 -0.192770 -0.131395 -0.210858 -0.084122 0.045046 0.334986 0.366058 -0.078248 0.060626 0.017218 0.118749 -0.327091 -0.013147 -0.167874 0.296971 -0.089183 0.024529 -0.045557 0.154528 -0.012529 0.137100 0.260326 0.162982 -0.175608 0.030539 0.078168 0.092484 -0.089816 -0.058207 -0.080399 0.010171 -0.058643 -0.013515 -0.234845 0.033763 -0.110941 -0.250730 0.372301 0.073973 0.284506 0.140628 0.044253 -0.197310 0.096029 -0.050603
man -0.130890 0.048235 -0.152149 -0.284876 0.080518 0.210123 0.205968 -0.229331 -0.053022 0.202919 0.149729 0.616143 -0.261617 0.056702 0.341616 -0.125851 -0.691355 -0.072122 -0.486655 0.123130 -0.267128 -0.000950 0.317624 0.642333 -0.459128 0.105568 0.692662 -0.096537 -0.419593 0.097566 0.026427 0.225393 -0.326936 -0.036380 0.214638 0.460730 0.210219 0.207769 -0.238593 0.320354 -0.546657 -0.181441 0.833441 -0.092508 0.147178 0.310143 -0.181691 -0.400441 0.221087 0.230580
thing 0.193178 0.107796 0.729612 -0.010597 0.179242 -0.518818 0.053200 0.283050 0.265411 0.376172 0.489588 0.619583 0.073680 -0.107685 -0.204970 0.195418 -0.126706 0.339297 0.114019 0.172452 0.286468 -0.189503 -0.346982 0.082921 0.098557 0.471777 -0.024939 0.544538 -0.034433 0.013746 -0.422933 -0.024872 -0.008156 0.236278 -0.278004 0.235665 0.230769 0.201453 -0.046860 0.274982 0.079931 -0.432619 -0.058431 0.028922 -0.043769 0.659345 0.505917 -0.457766 -0.094566 -0.107566
those 0.221475 0.104963 0.370875 -0.416102 -0.232865 -0.736780 0.158243 -0.111889 -0.061878 0.139946 0.299552 0.420194 0.201244 0.003123 -0.144277 0.370751 -0.473200 -0.046861 0.256415 0.264077 0.158078 -0.156851 0.057100 -0.122678 -0.052905 0.017001 0.254640 0.230893 0.084310 0.205023 0.114677 -0.134350 -0.095510 0.223177 -0.250570 0.105704 0.270227 -0.594135 0.341020 0.177511 -0.040131 -0.179828 -0.277277 -0.013662 -0.317429 0.315239 0.455910 -0.460166 0.165828 0.155817
work 0.334106 -0.019394 0.187334 -0.296796 -0.086795 -0.276161 -0.159340 0.172645 -0.271308 -0.021009 -0.028615 0.007014 0.052183 -0.025488 0.226030 -0.324209 -0.010102 0.333404 -0.044008 0.080653 0.031727 -0.136218 -0.060994 0.075126 -0.013088 0.273559 0.202232 0.242074 -0.088773 0.106843 -0.298105 0.162379 0.009733 -0.195100 -0.152120 -0.008536 0.118996 0.006264 -0.068900 0.369592 0.133051 -0.063367 0.032679 0.036908 0.123302 0.192355 0.036677 -0.098004 0.046153 0.156814
your 0.522783 0.121767 0.260699 -0.280091 -0.337790 -0.502278 -0.306733 -0.123382 -0.146811 -0.154431 0.060012 0.186517 0.138131 -0.123151 0.079057 0.219092 -0.251442 -0.149947 0.088608 -0.296778 0.485369 -0.167099 0.073503 -0.094340 0.022912 0.170819 -0.192963 0.040881 -0.025887 0.131447 -0.448493 0.264341 -0.023839 0.207552 -0.034300 -0.143000 0.056931 -0.374967 0.292959 0.176985 0.386981 -0.130552 -0.070841 -0.080294 -0.028977 0.029742 -0.365766 -0.504815 0.135128 0.279992
love 0.415145 -0.097294 0.375491 -0.410010 -0.336519 -0.571040 -0.107515 -0.041849 -0.094137 0.154533 0.116023 0.173759 -0.073160 -0.006675 -0.039438 0.014433 -0.346786 0.203332 0.241986 0.254553 0.069737 0.024137 -0.147642 0.011835 0.233207 0.032952 0.112855 0.402820 0.044795 0.385184 -0.381024 -0.168623 0.077036 0.196809 -0.122037 -0.126778 0.110494 -0.102198 0.082835 0.102005 0.426451 -0.177238 -0.155188 -0.216012 0.102874 -0.015089 0.228209 -0.193654 0.106487 -0.061836
two 0.200475 0.184338 0.431762 -0.441817 -0.151615 -0.806842 0.098415 0.197774 -0.065529 0.312674 0.373668 0.283028 0.137848 0.121688 -0.071534 0.156440 -0.178380 -0.038816 0.247430 0.357066 -0.071816 -0.090231 -0.485572 0.061332 0.210383 -0.129768 0.302425 0.001169 0.208688 0.006329 -0.093571 -0.118391 -0.081216 -0.088324 0.038668 0.096848 -0.230523 -0.104399 -0.026570 0.015778 0.067429 -0.154850 0.184028 -0.176406 0.306242 0.507044 0.452468 -0.243089 -0.014412 -0.102719
watching 0.329044 0.182109 0.486942 -0.302534 -0.148642 -0.441313 -0.210492 0.235096 -0.047312 0.166895 0.094532 0.006703 -0.101551 -0.087044 -0.128168 0.065449 0.080645 0.182778 0.240845 -0.208786 0.312434 -0.154424 -0.144693 -0.233485 0.102355 0.039089 -0.208984 0.179876 -0.018421 0.105265 -0.533643 0.113762 0.119369 0.102830 -0.346567 -0.199889 0.213933 -0.000533 0.086657 0.160458 0.320966 -0.212569 -0.463330 -0.216910 -0.203526 0.081689 -0.122837 -0.136764 0.196689 0.137173
did 0.238476 -0.042598 0.466882 -0.359355 -0.164751 -0.251905 0.088709 0.197651 0.119498 0.245890 0.122032 0.012317 -0.044742 -0.219248 -0.182365 -0.104651 -0.084023 0.478292 0.049953 0.153616 0.221583 -0.175315 -0.098274 0.141521 0.153544 0.086886 0.079645 0.280468 0.080967 0.046531 -0.340996 -0.035486 0.022888 0.076142 -0.138124 0.000335 0.143122 0.103050 -0.097208 0.137251 0.497307 -0.155269 -0.163228 0.025609 -0.253137 -0.012633 0.206056 0.046455 0.015436 -0.042221
many 0.221060 0.110404 0.365002 -0.242895 -0.092831 -0.694759 -0.004211 0.138236 -0.192471 -0.023521 0.142198 0.274696 0.127698 -0.001754 -0.016496 0.111493 0.010640 -0.176970 0.072853 0.259610 0.094824 -0.146429 -0.194386 -0.152183 0.289833 0.038450 0.174687 0.072705 -0.000284 0.089513 0.046710 -0.060798 -0.017867 0.078634 -0.243286 0.072765 -0.083747 -0.282382 0.172189 0.080161 -0.019346 -0.048591 -0.264482 -0.094009 -0.045791 0.192477 0.257829 -0.197268 -0.027746 0.116150
re 0.346288 0.167583 0.757360 -0.194576 -0.255102 -0.532984 0.037806 -0.047862 -0.576966 -0.158835 -0.211268 -0.031449 0.262889 0.085212 0.113111 0.409180 -0.234939 -0.072718 0.606864 -0.027310 0.472390 -0.310084 -0.349701 -0.637485 0.277054 -0.453615 -0.036721 -0.216291 0.571698 -0.219555 -0.291652 -0.064762 -0.232235 -0.036722 0.028951 0.039894 -0.513203 -0.630060 0.200942 0.186646 0.876827 0.283922 -0.539320 0.066412 -0.426943 0.389173 -0.366490 -0.193578 0.419361 0.246380
scenes 0.120511 0.223451 0.240862 -0.383586 0.027209 -0.666036 0.074734 0.202976 -0.263617 -0.006663 0.365953 0.140069 0.096521 0.093204 -0.110781 0.339520 -0.043136 -0.084981 0.078270 0.204798 -0.144041 0.011319 -0.252925 -0.224375 0.378831 -0.177880 0.073598 -0.154505 0.004177 -0.166988 0.326087 0.059273 -0.093673 -0.184536 -0.141302 -0.084513 -0.153180 -0.149125 0.110508 -0.085263 -0.109616 0.031642 -0.083821 -0.092448 0.216432 0.579960 0.242564 -0.233716 0.031213 -0.062460
end 0.176703 0.209598 0.365627 -0.235538 -0.091635 -0.455641 -0.054880 0.167382 0.085956 0.288183 0.261410 0.340963 0.001172 -0.012319 -0.242612 0.016577 -0.144071 0.131318 0.033368 0.103037 0.139399 0.021936 -0.212884 -0.020027 0.125011 -0.055984 0.025694 0.318502 0.016420 0.085012 -0.389462 0.097371 0.017071 0.046138 -0.035479 -0.115208 -0.025499 0.133642 -0.020576 0.022816 0.106913 -0.333267 0.236152 -0.254393 0.246773 0.442231 0.080189 -0.218928 0.011629 -0.083368
why 0.023375 -0.059928 0.638445 0.059960 -0.331746 -0.345226 0.048405 0.103401 -0.073371 -0.069103 -0.041925 -0.024174 0.326578 -0.354966 -0.135155 0.054054 0.121465 0.125161 0.138476 0.060996 0.231718 -0.377504 -0.240501 -0.300903 -0.028574 0.112337 -0.127481 0.247965 0.415056 -0.026304 -0.293309 -0.073612 -0.123160 -0.064211 -0.185050 0.279250 0.043112 0.042132 0.261767 0.358610 0.386342 -0.261330 -0.574510 0.256536 -0.387935 0.126497 0.258006 -0.037677 -0.126222 0.104443
doesn 0.238124 -0.231487 0.156675 -0.292874 -0.362088 0.044808 -0.203359 -0.136078 -0.222170 -0.575846 -0.171268 0.100071 0.460801 -0.268698 -0.199618 -0.390673 -0.007144 0.500824 -0.202717 0.443743 0.174703 -0.231860 -0.092433 -0.418099 0.540794 0.557960 -0.108147 0.747073 0.215299 0.244360 -0.245373 0.108857 -0.032845 -0.074745 -0.480482 0.068995 0.356435 0.181637 0.151550 0.380811 0.436037 -0.508690 -0.446116 0.255224 -0.584817 0.114179 0.265945 0.197499 -0.105252 -0.045176
know 0.140035 -0.071047 0.767150 -0.030875 -0.473771 -0.379111 0.286648 -0.222560 -0.092497 -0.023909 -0.207934 -0.041317 0.311922 -0.351649 -0.285873 0.184389 -0.103513 0.100486 0.267885 0.087755 0.234395 -0.295550 -0.131943 -0.608995 0.092461 -0.076383 -0.210924 0.334204 0.688609 0.011302 -0.306709 -0.236606 -0.136791 0.041952 -0.101921 0.316124 0.038767 -0.215999 0.356401 0.160624 0.620049 -0.265994 -0.532140 0.152907 -0.638001 0.110641 0.389043 -0.088843 0.133421 0.218257
play 0.055559 0.057828 0.290657 -0.137099 0.036137 -0.081858 -0.106222 -0.155414 -0.050344 -0.022610 0.302901 0.190155 0.097862 -0.165892 0.146774 0.068657 -0.235609 -0.015792 -0.047717 0.076290 0.027105 -0.226186 0.015723 0.062310 -0.166336 0.213078 0.203877 0.056917 -0.120347 -0.081649 -0.182590 0.290774 -0.147935 -0.152880 -0.016874 0.225854 0.091497 0.029493 -0.066845 0.303925 -0.127486 -0.225759 0.195374 0.251966 -0.062429 0.144134 -0.081528 -0.306733 0.045408 0.033260
though 0.048044 -0.069865 0.484420 -0.235397 0.007311 -0.178224 -0.015226 0.322197 -0.123242 0.173595 -0.084136 -0.026485 0.031132 0.020251 -0.106934 -0.151912 0.100008 0.326753 0.053766 0.092813 0.196045 -0.241048 -0.228786 -0.343282 0.024018 0.004266 0.136038 0.015004 0.188149 -0.055054 -0.023640 0.046625 -0.098707 -0.113684 -0.099476 -0.149571 0.021041 -0.083677 -0.031440 0.333232 0.293216 -0.024762 -0.359967 -0.004294 -0.319648 0.315690 0.081743 -0.141792 0.081299 0.129551
ve 0.275952 -0.311816 0.360051 0.084080 -0.451884 -0.197993 0.156167 0.523279 0.156898 0.430956 -0.520316 -0.520274 -0.042784 0.093861 -0.342950 -0.099349 0.226632 0.647782 0.773066 -0.172923 0.131466 0.218149 -0.295314 -0.250252 0.321790 -0.459077 -0.537494 0.841765 0.447830 0.246746 -0.362875 -0.845627 0.643564 0.210213 0.061016 -0.580935 0.268111 0.249865 0.440497 -0.006211 0.870910 -0.048992 -0.515572 -0.857016 -0.416344 0.010729 0.795995 0.315490 0.066574 -0.205227
again 0.154133 -0.069794 0.300350 -0.140406 -0.154705 -0.287897 -0.098374 0.137944 -0.272151 -0.110079 -0.203099 -0.156024 -0.026133 0.017759 0.184188 -0.105209 -0.338717 0.162830 0.119094 -0.063641 0.374776 -0.100968 -0.284357 0.054616 0.047357 0.120957 0.001050 -0.101182 0.195912 0.281884 -0.401151 0.094491 -0.232571 -0.300112 0.126882 0.173175 -0.155003 -0.140360 -0.002848 0.390398 0.594980 -0.001110 -0.064132 0.146338 0.062583 0.256448 -0.280693 -0.108883 0.165580 0.247070
another 0.198626 -0.033066 -0.033903 -0.180451 -0.228382 -0.261957 -0.231791 -0.233663 0.194670 -0.070667 0.223140 0.077176 -0.081163 0.105924 0.000588 0.222051 -0.365274 -0.094550 0.286537 0.104698 0.022682 0.238678 -0.161091 0.120304 0.231748 0.172885 -0.176798 0.236325 -0.086405 0.327248 -0.190728 -0.027467 0.183155 0.080714 0.023234 -0.084266 0.073352 -0.012888 0.206843 -0.067079 0.094177 -0.268607 0.098520 -0.060281 0.193321 -0.146307 0.143879 -0.055838 -0.046637 -0.145440
back 0.323716 -0.136514 0.169769 -0.169228 -0.227425 -0.261753 -0.066466 -0.197833 -0.139995 0.078772 0.068788 -0.130334 0.066172 0.045079 0.266128 -0.054139 -0.392931 -0.087039 0.145607 0.023209 0.183995 0.011612 -0.067490 -0.025357 0.176821 -0.029401 -0.040694 0.030771 0.146196 0.215146 -0.298799 0.034263 -0.125161 -0.099601 0.276893 0.032232 -0.294226 -0.268425 0.006480 0.206660 0.578368 -0.074955 0.254282 0.029471 0.182384 -0.080495 -0.137337 -0.132541 0.137650 0.131516
being 0.287336 0.042393 0.234728 -0.390003 -0.075873 -0.326406 0.088185 0.187388 -0.061436 0.149320 0.158731 0.232168 -0.054808 -0.066734 0.025108 -0.154551 -0.135461 0.382502 -0.082262 0.194903 -0.079343 -0.013117 -0.030704 0.213141 -0.058682 0.281657 0.273965 0.242647 -0.122195 0.081550 -0.266326 0.016806 -0.015596 0.055785 -0.025539 0.076364 0.207485 0.112162 -0.119537 0.247344 -0.012672 -0.141822 0.131290 -0.115076 0.101544 0.347769 0.124726 -0.130490 -0.018404 0.037308
such 0.456855 0.077851 0.138007 -0.638035 0.055851 -0.234887 -0.122866 0.231873 -0.312860 0.111079 0.007468 0.124297 -0.153645 0.055789 0.139111 -0.041842 -0.075429 0.399303 -0.062622 0.255394 -0.025733 -0.081303 0.054360 0.129852 -0.057834 0.236601 0.387908 0.316004 -0.374500 0.006413 -0.296491 0.210505 0.151853 -0.085391 -0.287909 -0.195016 0.339301 -0.059690 -0.388394 0.270113 0.080138 -0.049528 0.054915 -0.180290 0.078558 0.223667 0.055635 -0.197355 0.173491 0.141316
interesting 0.131766 0.011372 0.174214 -0.289708 0.186265 -0.394663 -0.178155 0.531134 0.005091 -0.096979 0.204492 0.153954 -0.240981 0.121142 0.211290 -0.096083 -0.115318 0.041033 0.278139 0.109422 0.077084 -0.042135 -0.295000 -0.135144 0.106377 0.155869 0.284798 0.076380 -0.171320 0.210865 -0.216968 -0.056838 -0.095983 -0.060441 -0.379774 0.261289 0.175857 0.139131 -0.106984 0.432336 -0.075384 -0.144394 -0.462539 -0.162803 0.041731 0.390937 -0.080064 -0.148432 -0.119491 -0.016294
plot 0.039251 -0.004176 0.326249 -0.162994 0.041069 -0.258665 -0.158403 0.251424 -0.104134 0.099426 0.111246 0.152372 -0.085002 -0.030362 0.083850 -0.322311 0.175068 0.204498 -0.075234 0.029766 -0.088978 -0.109201 -0.181748 -0.107817 -0.038674 0.085382 0.132277 0.222257 0.047834 0.064062 -0.300485 0.108788 -0.033559 -0.227759 -0.138011 0.206758 0.078606 0.348377 -0.091726 0.394589 -0.081318 -0.350472 0.025835 -0.016328 0.079830 0.393753 0.033395 -0.042384 -0.009172 -0.015258
real 0.437922 0.149092 0.382763 -0.446293 0.112370 -0.373613 0.027881 0.144474 -0.350688 0.212832 0.358442 0.234049 0.020338 -0.223397 -0.062301 0.045067 -0.197754 0.256119 -0.017181 0.461769 0.319322 -0.186951 -0.191217 0.206051 0.137197 0.287448 0.465351 0.156800 -0.324500 -0.016691 -0.276302 0.115488 -0.071476 -0.110019 -0.082954 -0.080146 0.041995 -0.032641 -0.399321 0.099851 0.144531 -0.054108 -0.007259 -0.052705 0.161898 0.387277 0.230279 -0.291221 -0.066697 0.018649
show 0.197584 0.007742 0.255011 -0.158938 -0.136878 -0.175029 0.034877 -0.114521 -0.033988 0.064258 0.146170 0.249952 0.095716 -0.126176 -0.136794 -0.183356 -0.206859 0.311969 -0.111757 0.126117 0.183060 -0.171323 0.040489 0.109199 0.016538 0.274386 0.065920 0.221825 -0.042964 0.164998 -0.213743 0.140908 -0.053657 0.058818 0.024494 0.147008 0.151009 0.031072 0.036192 0.296142 0.152066 -0.320866 0.125357 0.102222 -0.063798 0.255481 0.209090 -0.106842 -0.030914 0.038010
role 0.232340 -0.015618 -0.158969 -0.572546 0.140965 -0.095539 0.024185 0.042311 -0.089276 0.229509 0.257291 0.414217 -0.223096 0.087622 0.085913 -0.192715 -0.399637 0.446326 -0.083763 0.386057 -0.116432 0.010080 0.200367 0.465355 0.003984 0.299723 0.597002 0.204133 -0.448882 0.189916 -0.062583 0.097565 -0.055928 -0.112749 -0.066086 -0.072694 0.277587 -0.080298 -0.295152 0.148323 -0.140519 0.011936 0.307523 -0.104391 0.229510 0.269964 0.203665 -0.137474 0.052501 0.009202
say 0.344789 -0.208448 0.706030 0.153469 -0.306260 -0.253359 0.163021 0.235384 -0.044732 0.009948 -0.101884 -0.265780 0.242402 -0.190900 -0.133479 -0.120224 0.138986 0.453309 0.270981 -0.153207 0.286007 -0.068155 -0.215328 -0.391922 0.270848 0.142969 -0.530197 0.581485 0.525253 0.215738 -0.609561 -0.166353 0.026904 0.265354 -0.003754 0.248226 0.085247 0.149080 0.337390 0.425468 0.802358 -0.334348 -0.389593 -0.061128 -0.340931 0.124208 0.249118 -0.031695 0.035953 0.098017
should 0.383282 -0.036488 0.490006 0.158796 -0.205361 -0.264430 0.025734 0.318559 -0.033209 0.028912 -0.143595 0.063801 0.184608 0.171724 0.124101 0.223227 -0.140830 0.420289 0.721763 -0.282579 0.160555 -0.080537 -0.047985 -0.238968 0.296389 -0.009933 -0.450458 0.520846 0.183409 0.307858 -0.421620 -0.161405 0.198026 0.460702 0.151158 -0.091386 0.258210 -0.079305 0.468671 0.399704 0.432158 -0.205412 -0.256789 -0.588976 -0.484082 0.446928 0.085078 -0.389395 0.256452 -0.102563
thought 0.384245 -0.157619 0.369354 -0.361154 -0.270562 -0.335075 0.004854 0.405145 0.261147 0.333307 0.047471 -0.289913 -0.172857 -0.046929 -0.138943 -0.374796 0.306331 0.688274 0.188213 -0.190385 0.109736 0.165904 -0.184420 -0.136040 0.152469 0.290720 -0.464945 0.639121 0.130651 0.441068 -0.621477 -0.119095 0.277149 0.187332 -0.162559 -0.148807 0.351609 0.386240 0.040328 0.164717 0.577845 -0.437963 -0.382022 -0.248285 -0.057506 -0.074416 0.228471 0.235420 0.012434 0.044763
while 0.119682 -0.056468 0.141202 -0.349359 -0.094485 -0.127617 0.053832 0.109934 0.035548 0.271012 0.113763 0.260626 -0.206957 0.120692 -0.067338 -0.125823 -0.269428 0.474263 0.045386 0.127522 -0.002371 -0.002138 0.135366 0.245219 -0.061336 0.040478 0.257665 0.287776 -0.106900 0.158153 -0.156574 -0.115027 0.059013 0.151832 0.060234 -0.040295 0.208468 -0.015440 -0.107428 0.207451 0.125638 -0.067280 0.214979 -0.202621 0.011335 0.157977 0.164218 -0.051084 0.109697 -0.009626
films 0.346619 0.091274 0.344635 -0.214461 -0.197976 -0.590682 0.078237 0.058127 -0.160581 0.265682 0.169092 0.154687 0.134691 0.019187 -0.202887 0.126519 -0.018363 0.125359 0.264129 0.163974 -0.001869 -0.031308 -0.179443 -0.138483 0.111793 -0.053855 0.110789 0.324979 0.149921 0.010928 -0.142924 -0.119011 0.171976 0.228124 -0.130450 -0.156567 0.058691 -0.195592 0.169033 0.016577 0.140750 -0.070440 -0.131079 -0.250411 0.077461 0.272209 0.597363 -0.183915 -0.030139 0.036059
going 0.418960 -0.160309 0.403903 -0.226579 -0.193802 -0.399122 0.103997 0.161214 -0.060717 0.084513 0.056092 -0.079780 -0.092593 0.057884 0.313422 -0.172512 -0.193008 0.370084 0.246390 -0.232961 0.262937 -0.061241 -0.057370 -0.195403 0.027588 0.136556 -0.150063 0.223493 0.157620 0.223417 -0.500291 0.016549 -0.089393 0.153490 0.111459 0.297365 0.008266 -0.012089 0.060562 0.562148 0.548982 -0.219274 -0.130408 -0.131798 -0.139591 0.258962 -0.222409 -0.121825 0.208277 0.221877
makes 0.159659 0.050174 0.350349 -0.179580 -0.119428 -0.224097 -0.014861 0.205360 -0.135280 -0.052849 -0.019180 0.077859 -0.080074 -0.055434 -0.133986 -0.037143 -0.101952 0.355027 0.020627 0.026055 0.305269 -0.095016 -0.121540 -0.155578 0.105315 0.193743 -0.042093 0.245506 0.087761 0.225652 -0.417368 0.019154 -0.076264 -0.038046 -0.226778 0.077335 0.186084 0.081547 0.000252 0.280021 0.310795 -0.216260 -0.155197 0.012590 -0.197538 0.308404 0.022592 -0.153708 0.150861 0.088068
without 0.055823 -0.017648 0.010792 0.082527 -0.010395 -0.092715 -0.062180 0.109855 -0.038804 0.031977 0.011536 0.131409 -0.075136 0.023870 0.105968 0.088461 -0.107531 0.005838 0.065908 -0.081447 -0.009820 -0.014407 0.010147 0.010416 -0.056467 0.119787 0.089334 0.093816 -0.039348 0.206321 -0.138109 -0.060716 -0.089641 0.149010 -0.131161 0.206173 0.101817 0.110939 -0.006963 0.191963 -0.048277 -0.060713 -0.130698 -0.072718 -0.067753 0.120593 -0.032702 -0.212508 0.037598 0.048631
before 0.150890 -0.114333 0.304548 -0.076215 -0.331001 -0.274297 -0.077878 0.376781 0.035263 0.098676 -0.239603 -0.112474 -0.023854 0.091903 -0.208361 -0.115329 0.002906 0.318155 0.359259 -0.214538 0.324014 0.014050 -0.180387 -0.180942 0.074733 -0.085031 -0.262142 0.356477 0.202694 0.320995 -0.341743 -0.233918 0.196357 0.115636 -0.107736 -0.174606 0.262934 0.005025 0.295017 0.301150 0.481976 -0.140369 -0.438431 -0.385633 -0.254583 0.099214 0.126276 0.053046 0.056766 0.084141
little 0.104948 0.154248 -0.275225 -0.488046 0.042723 -0.155947 -0.272453 0.010745 -0.031408 -0.124448 -0.018129 0.199047 -0.351449 0.110496 0.229119 -0.028628 -0.150990 -0.054610 -0.036211 0.039560 -0.177649 0.122071 0.120257 0.079438 -0.095817 0.303000 0.231373 0.263266 -0.432964 0.160376 -0.157350 0.055363 0.128078 0.200713 -0.499318 -0.009441 0.304641 0.162048 -0.246728 0.100745 -0.212183 -0.191556 -0.108166 -0.429196 -0.030023 0.017929 -0.341231 -0.086751 0.175883 -0.001434
these 0.141967 0.118635 0.284180 -0.117063 -0.201453 -0.659035 0.135977 0.014185 -0.161995 0.016761 0.248520 0.173322 0.219856 -0.020935 -0.139717 0.209654 -0.131131 -0.159113 0.188290 0.270438 0.182222 -0.071619 -0.194003 -0.060537 0.133435 -0.076730 0.119735 -0.062533 0.287156 -0.061011 0.025078 -0.098817 -0.094847 0.183216 0.028264 0.106450 -0.236857 -0.367380 0.224444 -0.056697 0.069082 0.029070 -0.021012 0.003923 0.078083 0.145720 0.344650 -0.117291 -0.072795 -0.017803
where 0.079661 0.090244 0.276571 -0.055327 -0.145377 -0.211554 0.067965 -0.069384 0.053614 0.058306 0.098863 0.210971 0.046528 -0.047601 -0.036342 0.179483 -0.270279 -0.028603 0.069301 0.060548 0.040369 -0.098918 -0.098088 -0.066982 -0.033331 -0.012729 0.037978 0.065816 0.095581 0.021807 -0.163948 0.036681 -0.041006 0.049889 0.095955 0.123145 0.008905 -0.149385 0.077111 0.084456 0.133131 -0.180465 0.126733 -0.025398 -0.014392 0.100132 -0.016665 -0.218138 0.132754 0.034187
years 0.126314 0.033174 0.048660 -0.039888 -0.140185 -0.357275 0.022234 -0.032979 -0.000247 0.144300 0.159873 0.097533 -0.029745 0.097037 -0.158128 0.126789 -0.120895 0.028140 0.171153 -0.099103 0.008265 0.083703 0.107894 0.149331 -0.119363 -0.018913 -0.105855 0.063281 -0.124143 0.121622 0.076335 -0.103082 0.093590 0.282282 0.063357 -0.204374 0.096692 -0.238409 0.284487 -0.035831 -0.092834 0.013437 -0.041110 -0.157188 0.184626 0.059943 0.289657 -0.086120 0.012367 0.017392
anything 0.268537 -0.187916 0.136452 0.219731 0.109479 0.034647 -0.068171 0.249557 -0.190992 -0.140348 -0.100488 -0.046412 0.044341 -0.072502 0.182449 0.008852 0.001132 0.056445 0.304206 -0.082993 0.164519 -0.178093 -0.067592 -0.431967 0.009879 0.159807 0.113750 0.388052 0.046937 0.062908 -0.279956 -0.233607 -0.142135 0.135103 -0.420658 0.243600 0.002956 -0.011062 0.011441 0.390589 0.334057 0.036833 -0.780431 0.020155 -0.179540 -0.034578 0.099636 -0.231835 -0.145116 0.167422
hard 0.347630 -0.125061 0.547025 -0.046316 -0.132885 -0.391859 0.049470 0.276338 -0.293599 -0.212385 0.001859 0.154716 0.141159 -0.204972 0.494245 -0.295121 -0.278046 0.135298 -0.075417 -0.073686 0.507993 -0.348447 -0.137370 0.143471 -0.051229 0.338970 0.335673 0.054600 0.028410 0.340883 -0.373740 -0.006190 -0.394614 0.188234 0.019321 0.512302 0.068784 0.025777 -0.070175 0.734710 0.418803 -0.089434 -0.237108 0.027937 -0.416263 0.372206 -0.382228 -0.229011 -0.033419 0.293334
however 0.086597 0.051649 0.357310 -0.239883 -0.119214 -0.379312 -0.025919 0.306305 0.185616 0.195765 0.186603 0.102274 -0.097788 0.029120 -0.015133 -0.140558 0.084086 0.273911 0.099487 -0.070632 -0.007896 0.004384 -0.256339 -0.043782 0.071793 0.159878 -0.125862 0.226332 0.076113 0.180674 -0.390791 0.035493 0.021964 0.036759 -0.062981 0.099645 0.161000 0.264795 -0.050262 0.199935 0.156809 -0.318240 -0.105257 -0.145744 0.058096 0.222494 -0.009207 -0.003337 0.008977 -0.077934
nothing 0.107150 -0.107032 0.371020 -0.066376 -0.001980 -0.265291 0.039833 0.386089 -0.056556 0.039915 0.008833 0.133052 -0.147213 -0.066173 0.236555 -0.211349 -0.018793 0.290271 0.084316 0.024215 0.087662 -0.205332 -0.161101 0.007350 -0.060938 0.164594 0.295762 0.316220 0.029793 0.105237 -0.403233 -0.172733 -0.134741 0.014793 -0.261314 0.322499 0.109835 0.269470 -0.216951 0.442541 0.248979 -0.120303 -0.435309 -0.095516 -0.006047 0.274534 -0.018118 -0.074404 -0.126927 -0.016715
quite -0.002877 0.034574 0.282945 -0.202237 -0.025918 -0.373989 -0.114025 0.383482 0.148154 -0.050022 0.088611 0.079628 -0.111804 -0.027497 0.119204 -0.092443 0.121109 0.068749 0.029119 -0.067233 -0.027536 -0.193417 -0.285715 -0.045635 0.006203 0.124785 0.123180 -0.078434 0.047292 0.031665 -0.252237 0.065619 -0.047405 -0.120899 -0.092822 0.253919 0.237783 0.270350 -0.072438 0.236439 0.031997 -0.143988 -0.230411 -0.015884 -0.018490 0.192292 -0.132496 0.120905 -0.110393 -0.121355
same 0.191922 0.147672 0.317651 -0.283417 0.101858 -0.299484 0.003613 -0.034730 -0.157643 0.289202 0.305942 0.220981 -0.040883 -0.047471 -0.199047 -0.011920 -0.172295 0.214544 -0.090934 0.207257 0.106586 -0.036822 -0.059135 -0.021050 0.108156 0.078429 0.105988 0.221322 -0.108603 -0.058584 -0.138380 0.253103 -0.034539 -0.269628 -0.071112 0.056794 -0.098660 0.097301 -0.061980 0.090404 -0.014274 -0.245870 0.424574 0.133571 0.218947 0.604870 0.252216 -0.386949 0.067462 0.004288
script -0.009829 0.087952 0.237757 -0.137664 -0.021883 -0.192207 -0.112162 -0.019964 -0.017559 0.004611 0.025323 0.313711 -0.089364 -0.076077 -0.008643 -0.166846 -0.002475 0.125466 -0.099946 0.021457 -0.064367 -0.106846 -0.028634 -0.010490 0.012254 0.158766 0.040670 0.306573 -0.033248 0.058108 -0.281781 0.029787 -0.024423 -0.062883 -0.168348 0.242516 0.179434 0.317442 0.053945 0.249095 -0.119141 -0.443876 0.019659 -0.046915 -0.058510 0.395841 0.076022 -0.131283 0.063926 -0.071679
through 0.193962 0.005204 0.114443 -0.051705 -0.006812 -0.061013 -0.030895 -0.038393 -0.162426 0.094508 -0.007091 0.028875 -0.019286 -0.017931 0.046919 -0.102687 -0.067558 0.179577 -0.020067 0.019369 0.001785 0.029591 0.023660 0.249394 0.026664 -0.058528 0.052063 0.187350 -0.102331 0.101089 -0.180649 0.012251 0.082081 -0.020863 0.097457 -0.185221 -0.021002 0.105807 -0.064036 0.072335 0.130498 -0.074400 0.274676 -0.192364 0.114588 0.136845 0.105203 -0.072791 0.108343 -0.048077
every 0.098452 0.112396 -0.030508 -0.187241 -0.077376 -0.187115 -0.034971 -0.119899 -0.102471 -0.068543 0.131252 0.140512 0.020818 0.052301 0.086268 0.056793 -0.224455 -0.063487 -0.061504 0.145327 0.085979 -0.006207 -0.024983 0.182202 0.048149 0.115611 0.157644 0.045619 0.003190 0.110234 -0.013120 0.050245 -0.070739 0.091408 0.067733 -0.004032 -0.074863 -0.112831 -0.049141 0.036071 0.041894 -0.101192 0.303832 -0.043032 0.062317 -0.009143 -0.058998 -0.104767 0.065615 0.043701
find 0.296852 -0.169465 0.228739 -0.150598 -0.370876 -0.134188 -0.039448 -0.013320 -0.106544 0.024650 -0.217735 -0.054693 -0.050613 0.006298 0.121163 -0.035164 -0.284434 0.129840 0.180854 -0.097242 0.046935 0.084737 -0.061275 -0.121972 0.102722 0.015375 -0.122588 0.282845 0.159277 0.269992 -0.410778 -0.102765 0.021754 0.102533 0.012674 0.169259 0.030654 -0.071101 0.188413 0.303127 0.608250 -0.184168 -0.081533 -0.208133 -0.066616 -0.094752 -0.113364 -0.136932 0.187855 0.145994
give 0.267987 -0.039377 0.144049 -0.127707 -0.251211 -0.098883 -0.063170 -0.146723 -0.166717 -0.189900 -0.153634 -0.007327 0.137959 0.034708 0.153982 0.066523 -0.360743 0.113264 0.221813 -0.058441 0.103771 -0.061331 0.042391 -0.247114 0.214480 0.073726 -0.080646 0.251033 0.165639 0.188461 -0.242860 -0.047931 -0.034970 0.161999 -0.042747 0.082113 0.013228 -0.146616 0.225026 0.290349 0.439734 -0.210727 -0.067034 -0.237365 -0.324961 0.093532 -0.180374 -0.252181 0.268348 0.061523
here 0.086483 0.041397 0.162728 -0.177201 0.062977 -0.223454 -0.070638 0.153015 -0.122934 0.009709 -0.023330 0.066763 -0.114156 -0.005145 0.111132 -0.032703 -0.040068 0.023483 0.034237 0.034902 -0.077769 -0.142390 -0.112117 -0.115863 0.122006 -0.031055 0.162204 0.039832 -0.082686 -0.035011 -0.067073 0.024860 -0.061421 -0.091504 -0.253464 0.083644 0.133886 0.058856 -0.035986 0.180317 0.017002 -0.021809 -0.238351 -0.153224 -0.123939 0.245104 -0.095087 -0.069849 -0.004935 -0.023510
m 0.305131 -0.073030 0.453292 -0.216751 -0.339590 -0.293063 0.084158 0.349956 0.144795 0.280742 -0.289199 -0.258383 0.061572 -0.261381 -0.261580 -0.160660 0.392606 0.405106 0.210878 -0.101695 -0.112437 -0.078566 -0.236476 -0.222051 0.214484 -0.016546 -0.296095 0.430400 0.339873 0.002155 -0.450569 -0.369418 0.135466 0.163246 -0.191942 -0.115162 0.169419 0.272695 0.198886 -0.025294 0.671588 -0.153403 -0.626115 -0.257958 -0.313505 -0.221016 0.307071 0.234923 -0.019434 0.041521
far 0.241495 0.100032 0.424818 -0.526345 0.194229 -0.408636 -0.027819 0.573459 -0.207971 0.300741 0.123333 0.062465 -0.084127 0.040020 0.159553 -0.196133 0.141273 0.227338 -0.068014 0.240683 -0.155606 -0.260475 -0.259852 -0.003731 0.011409 0.012967 0.544175 0.023269 -0.211728 -0.137544 -0.063127 0.147524 0.038803 -0.345484 -0.221522 -0.123320 0.062144 0.022286 -0.321544 0.253674 -0.067786 0.129287 -0.095216 -0.079545 0.161796 0.368533 0.161814 -0.150820 -0.045461 0.079876
pretty 0.001477 -0.075670 0.288402 -0.113180 0.311929 -0.260178 -0.170614 0.542327 -0.002567 -0.034343 -0.008962 0.225700 -0.286136 -0.091106 0.311471 -0.412092 0.330241 0.198525 -0.103996 0.022586 -0.165097 -0.265053 -0.055066 -0.067513 -0.076443 0.173982 0.395792 0.298887 -0.341245 -0.069464 -0.205092 -0.017762 0.039592 0.074770 -0.585268 0.226958 0.291037 0.418845 -0.234409 0.391404 -0.206144 -0.161764 -0.625005 -0.241685 -0.051014 0.215506 -0.065850 0.154300 -0.291918 -0.120308
still 0.095003 -0.070701 0.330170 -0.161345 -0.085749 -0.155249 -0.033312 0.285370 0.022176 0.057992 0.042378 -0.076737 -0.072981 -0.171792 0.026424 -0.146728 0.072895 0.261747 -0.037583 -0.024001 0.130751 -0.152649 -0.124995 0.090957 -0.080838 0.173535 0.034355 0.169449 -0.032013 0.151337 -0.383016 0.057947 -0.037297 -0.143615 -0.106558 0.086660 0.277657 0.314384 -0.133749 0.205562 0.265045 -0.163142 -0.239227 -0.033938 -0.053113 0.139660 -0.062677 0.032270 -0.047368 -0.002395
worst 0.235892 0.078451 0.421536 -0.012934 -0.155536 -0.465046 0.025569 0.212995 0.172107 0.523501 0.309309 0.262738 0.032908 -0.160087 -0.575391 -0.090605 0.219561 0.399778 0.101772 0.000251 -0.025825 0.048420 -0.017762 -0.007510 0.062673 0.076243 -0.299736 0.585897 -0.022706 0.126164 -0.361629 -0.016611 0.404104 0.195769 -0.016514 -0.291263 0.467151 0.323238 0.328799 0.037592 -0.053258 -0.475132 0.022163 -0.324002 0.101683 0.278977 0.787950 -0.070791 -0.079537 -0.300643
actually 0.079627 -0.068367 0.384986 -0.117584 -0.034898 -0.252359 0.095897 0.163219 -0.077417 -0.120228 0.022103 0.135642 0.039073 -0.056677 0.189418 -0.109934 -0.085152 0.163163 0.067499 0.104353 0.203928 -0.282259 -0.142793 -0.072678 -0.038818 0.202500 0.249796 0.066620 0.044187 0.060167 -0.185743 -0.020984 -0.155243 0.050883 -0.117923 0.316521 0.104953 -0.010190 -0.093542 0.356279 0.207438 -0.102202 -0.362060 0.022114 -0.270809 0.218809 -0.093813 -0.008777 -0.035222 0.090564
now 0.152233 0.000272 0.266595 -0.156679 -0.071740 -0.173107 0.077759 0.061051 -0.117431 0.136512 0.003635 -0.048420 0.029600 -0.060185 -0.065621 -0.018018 0.010530 0.137718 -0.004156 0.133138 0.025170 -0.052535 -0.127314 0.110494 0.034655 0.039329 0.031456 0.150318 0.059851 0.020998 -0.246696 -0.002205 0.045100 -0.166443 0.027922 -0.057047 -0.027402 -0.012451 -0.090710 0.090645 0.277889 -0.034537 0.124961 0.053413 0.140947 0.094263 0.236319 -0.065043 0.057228 0.063106
performance 0.004555 0.079363 -0.061043 -0.405127 0.140263 -0.027550 0.024573 0.140137 0.125123 0.147245 0.130841 0.359507 -0.214814 -0.005229 -0.042651 -0.131715 -0.135677 0.387530 -0.213363 0.326138 -0.169794 -0.004461 0.115852 0.429456 -0.136237 0.310616 0.463922 0.130025 -0.440551 0.056532 -0.068791 0.057738 0.075051 0.034806 -0.122650 -0.057843 0.507002 0.204635 -0.358630 0.056331 -0.290286 -0.105262 0.168347 -0.125453 0.052998 0.183448 0.098625 0.026949 -0.012217 -0.063152
bit 0.162020 0.108482 -0.192346 -0.458687 0.047477 -0.272506 -0.164621 0.147543 -0.030700 -0.039506 0.006700 0.178532 -0.289049 0.118274 0.250674 -0.059939 -0.108300 0.040451 0.047100 0.025571 -0.153687 0.096717 0.087883 0.035719 -0.015903 0.253803 0.196906 0.274776 -0.388413 0.137846 -0.138918 0.010093 0.132940 0.301198 -0.398666 -0.030969 0.235799 0.107209 -0.172590 0.118723 -0.096547 -0.113961 -0.132860 -0.470439 -0.052617 0.060846 -0.310614 -0.072692 0.151056 -0.075651
come 0.477658 -0.049671 0.278428 -0.132178 -0.330026 -0.295954 0.046886 -0.147836 -0.299448 0.038699 0.045940 0.015301 0.221674 -0.058362 0.130256 -0.101496 -0.162799 0.138461 0.108141 0.019422 0.085919 -0.058786 0.011467 -0.067569 0.060437 -0.052936 -0.092826 0.329082 0.215463 0.173181 -0.347073 0.059281 0.038000 0.152303 0.147337 -0.025394 -0.167666 -0.235682 0.105408 0.353939 0.463263 -0.222254 0.156407 -0.015686 0.020802 -0.016215 0.149590 -0.143649 0.184143 0.135624
comedy -0.007578 -0.025308 -0.127400 0.039234 0.007229 -0.087557 -0.068013 -0.144391 0.020169 -0.176787 0.102311 0.194257 -0.177979 0.071960 0.100944 0.098676 -0.243897 0.011996 -0.034854 -0.088590 0.065669 0.096115 0.155458 0.261746 -0.061403 0.149311 0.022562 0.025692 -0.224810 0.213730 -0.108484 0.017810 -0.063102 0.088125 0.016823 0.098185 0.038243 0.006052 0.028821 0.058197 -0.122752 -0.084884 0.130092 -0.023660 0.067840 0.103621 -0.181597 -0.142897 0.048081 -0.035371
funny 0.102895 0.069975 0.332826 -0.457684 0.173197 -0.307824 -0.081715 0.614217 -0.029789 -0.049971 -0.022994 0.031605 -0.189967 -0.017770 0.237069 -0.172015 0.153115 0.264976 0.003801 0.094672 0.055205 -0.225849 -0.347003 -0.116621 0.050222 0.281104 0.314752 0.001720 -0.127398 0.047436 -0.276539 0.074447 -0.087476 -0.164678 -0.378636 0.075893 0.364324 0.317055 -0.317707 0.332691 0.081704 -0.108777 -0.515721 -0.162723 -0.294126 0.418125 -0.302750 0.050842 -0.030813 -0.026831
right 0.183209 -0.008688 0.578846 -0.063818 -0.199261 -0.397567 0.155560 0.178402 -0.189912 0.068062 -0.039166 -0.012022 0.168388 -0.122081 -0.073538 -0.037956 0.052333 0.170309 0.093193 0.099831 0.226643 -0.216359 -0.311195 -0.054092 0.130528 -0.032998 0.026523 0.087427 0.380585 -0.017251 -0.342379 -0.042546 -0.105369 -0.090544 0.031141 0.100792 -0.158824 0.026284 0.006471 0.194914 0.432695 -0.026820 -0.140590 0.105962 -0.096675 0.230717 0.202434 -0.004049 0.018888 -0.012010
beautiful 0.135561 -0.016311 0.155224 -0.324443 0.011403 -0.326711 -0.033613 0.200363 -0.150463 -0.005269 0.127132 0.163901 -0.152203 0.063482 -0.070273 -0.178933 -0.019833 0.281489 -0.137263 0.193656 0.128317 -0.003477 -0.079898 0.219509 0.012001 0.214054 0.282364 0.142963 -0.052625 0.179589 -0.153587 0.067162 -0.069315 -0.110748 -0.175713 -0.003860 0.195130 0.066827 -0.145815 0.198916 -0.045020 -0.111182 -0.020021 0.081944 0.156089 0.349033 0.135023 -0.020855 -0.087178 0.011223
course 0.193538 0.132783 0.100946 -0.210135 -0.079092 -0.594940 -0.023394 0.030237 -0.053951 0.183891 0.515860 0.546463 0.014398 -0.031818 -0.128731 0.164001 -0.190646 -0.087179 0.018276 0.057745 -0.054784 -0.040281 0.112279 0.204695 -0.200650 0.087917 0.159444 0.080012 -0.315774 0.074483 -0.023149 0.173232 0.047580 0.328182 -0.060429 -0.092285 0.191463 -0.264664 0.219747 0.140704 -0.347749 -0.128997 0.002949 -0.057354 0.175282 0.091548 0.212468 -0.286271 0.012473 -0.035165
seems 0.164646 -0.143345 0.119908 0.083362 -0.126716 -0.046306 0.047748 -0.029957 -0.176904 -0.161827 -0.120427 0.087399 0.055516 0.078504 0.348485 -0.139601 -0.301824 0.113279 0.023519 -0.087670 0.112546 -0.090495 0.125346 0.010953 0.094531 0.144475 0.056724 0.217056 0.068723 0.281937 -0.156557 0.001466 -0.138573 0.147644 0.109842 0.429448 -0.023038 -0.037726 0.113037 0.487166 0.245634 -0.172465 0.165020 0.002836 -0.210090 0.195165 -0.211337 -0.182553 0.057688 0.061544
world -0.046123 0.223233 0.222669 -0.122049 0.047398 -0.223659 -0.072095 -0.077254 -0.046221 0.118643 0.294314 0.370548 -0.054470 -0.005489 -0.000430 0.098530 -0.219427 -0.237420 -0.059344 0.042860 -0.027986 -0.097954 -0.098759 0.059553 -0.072358 -0.129632 0.174136 -0.157863 -0.051986 -0.090032 -0.146367 0.233359 -0.088611 -0.228543 0.063391 0.108352 -0.082214 0.036012 -0.085867 0.084534 -0.231135 -0.172473 0.418383 -0.019593 0.221757 0.447503 -0.095059 -0.309612 0.129786 -0.031437
almost 0.152388 -0.114934 0.141189 -0.117465 -0.063914 -0.233053 -0.063774 0.144360 -0.057456 0.015962 0.143052 0.019567 -0.131080 0.031130 0.096686 -0.101465 -0.067565 0.208522 0.058392 -0.041043 0.168690 0.016329 -0.039967 -0.011515 -0.016030 0.134067 0.011418 0.137281 -0.029613 0.223714 -0.187051 -0.018754 -0.048180 0.040477 -0.041396 0.052377 0.116653 0.065698 -0.005147 0.256833 0.100743 -0.163639 -0.131269 -0.045954 0.042212 0.097011 0.003722 -0.012511 -0.020341 -0.010240
isn 0.139443 -0.108751 0.411028 -0.064618 -0.213705 -0.073474 -0.243683 -0.063008 -0.118113 -0.489215 -0.122180 0.098174 0.432890 -0.350758 -0.276648 -0.154077 0.216720 0.200270 -0.055789 0.232637 0.257298 -0.227995 -0.228013 -0.549203 0.322691 0.446353 -0.219157 0.535762 0.289754 0.084457 -0.288158 0.017244 -0.053480 -0.077486 -0.609188 0.163903 0.322345 0.212736 0.171150 0.255423 0.240435 -0.484452 -0.801914 0.297360 -0.591529 0.029705 0.153077 0.072423 -0.107037 -0.012537
probably 0.036391 0.047127 0.583515 0.137577 -0.222789 -0.203456 0.031706 0.138040 0.064909 0.088368 -0.022566 -0.069435 0.244465 -0.143956 -0.166476 0.174677 0.078060 0.133250 0.384824 -0.117138 0.226426 -0.243511 -0.231166 -0.396194 0.100265 -0.090612 -0.373237 0.164532 0.415291 -0.027562 -0.295722 -0.102191 0.024168 0.102412 0.007329 0.097524 0.018472 0.013717 0.260943 0.195554 0.398131 -0.181328 -0.438740 -0.015792 -0.372070 0.212747 0.133825 -0.068802 0.032204 -0.010467
put 0.361645 -0.146556 0.125082 -0.188305 -0.012951 -0.103871 -0.114822 -0.145707 -0.188733 0.040866 0.141719 -0.068674 -0.019170 0.006561 0.313017 -0.272817 -0.240328 0.168369 -0.017807 0.092338 0.222070 0.011483 0.077971 0.000640 0.038701 0.096840 0.192924 0.294147 -0.060234 0.194099 -0.322324 0.132445 -0.010211 -0.055016 -0.003806 0.006617 -0.154545 -0.115831 -0.122102 0.351368 0.338400 -0.162566 0.215259 0.068581 0.118215 -0.097202 -0.090178 -0.148335 0.084991 0.131558
rather 0.214232 -0.089199 0.043262 -0.182921 0.141198 0.079809 -0.006001 0.269605 -0.176666 0.013980 -0.183046 -0.114630 -0.205437 0.076773 0.289110 -0.177217 -0.092758 0.228416 0.068098 -0.047452 0.059482 -0.016756 0.110713 0.241442 -0.121493 0.071199 0.206040 0.182052 -0.202474 0.166385 -0.262550 -0.017964 0.018872 0.045315 -0.112231 -0.064979 0.170458 0.055441 -0.291119 0.265219 0.166240 0.149424 -0.146914 -0.194898 -0.015524 0.062828 -0.074928 -0.115819 0.039825 0.154561
young -0.183975 0.194896 -0.248976 -0.348515 0.030518 -0.018453 0.023771 -0.269547 0.021212 0.093112 0.124619 0.450388 -0.229526 0.064765 0.263638 0.163018 -0.438235 -0.303476 -0.209857 0.142920 -0.238006 0.097183 0.219428 0.278084 -0.214334 0.085042 0.499847 -0.136326 -0.264653 0.053936 0.156440 0.092273 -0.161391 -0.035791 -0.176539 0.312860 0.079557 -0.003528 -0.193269 0.024738 -0.478097 -0.152428 0.399030 -0.120203 -0.050198 0.138741 -0.208961 -0.262617 0.215673 0.150514
action -0.006791 0.090772 0.032026 -0.045836 -0.037619 -0.081471 -0.181298 -0.157213 0.064479 -0.070009 0.167379 0.121866 0.006435 0.007059 -0.040606 0.028332 -0.066670 -0.127729 -0.006980 0.021629 -0.081150 0.065310 -0.080550 -0.054997 0.157896 0.102801 -0.099207 0.059730 -0.029091 0.062186 -0.088344 0.064752 0.052306 -0.088555 -0.127715 0.008544 0.074639 0.140152 0.083637 -0.070502 -0.119857 -0.254194 0.005979 -0.020880 0.098865 0.077321 -0.003885 -0.045442 -0.021542 -0.135969
each 0.541219 -0.028748 0.049103 -0.059908 -0.136607 -0.490620 -0.040868 -0.115029 -0.173636 0.128978 0.260706 0.152251 0.175444 0.162491 -0.017541 0.192116 -0.260367 -0.085341 0.487358 0.180987 0.126423 -0.071900 -0.049430 0.153663 0.117046 -0.125245 0.107791 0.252510 -0.022701 0.221137 -0.106480 -0.031818 0.001305 0.339870 0.145662 -0.257465 -0.257985 -0.431570 0.016755 -0.149881 0.169357 0.044448 0.145210 -0.021825 0.481504 0.060817 0.414202 -0.335917 -0.164472 0.042966
fact 0.185172 -0.048457 0.448092 0.033100 -0.005028 -0.304884 0.154142 0.129984 -0.197419 0.071449 0.090381 0.196243 -0.047559 -0.111072 -0.084802 -0.095315 -0.113996 0.348426 0.035969 0.206368 0.237554 -0.044632 -0.054146 0.135204 0.181477 0.142628 0.001478 0.439770 0.057412 0.037989 -0.376777 -0.142749 -0.081066 0.067457 -0.042978 0.132490 -0.056509 0.156526 -0.104361 0.182906 0.314985 -0.162502 0.055351 0.025529 0.023225 0.379084 0.321468 -0.137951 0.046227 -0.102541
things 0.213230 0.066765 0.178030 -0.211406 -0.115857 -0.458000 0.135511 -0.080084 -0.081906 0.142751 0.199858 0.200017 0.049089 -0.020418 -0.088133 0.260376 -0.221708 -0.025678 0.171057 0.284084 -0.059683 0.071479 -0.178903 -0.102124 0.199181 -0.071779 0.079528 0.038209 0.091187 -0.049619 0.032223 -0.250328 -0.040126 0.124376 -0.111707 -0.020471 -0.134388 -0.238158 0.080284 -0.124076 0.175224 0.040297 -0.113848 -0.087263 0.064670 0.006889 0.318208 -0.103338 0.091097 -0.074131
big 0.031907 0.103998 -0.013843 -0.267013 0.044009 -0.200676 -0.081648 0.013343 0.035188 0.159230 0.188287 0.348690 -0.108320 -0.032874 -0.042218 0.049569 -0.036432 0.011108 -0.102266 0.126996 -0.091153 0.019075 0.091732 0.325920 -0.260296 0.087157 0.251303 0.044028 -0.308328 -0.091339 -0.106290 0.114568 0.068152 0.039211 -0.058109 -0.127408 0.111646 0.004664 -0.240649 -0.109175 -0.239451 -0.063690 0.176974 -0.088428 0.291527 0.071741 0.087936 -0.113548 0.011296 -0.014979
cast -0.023638 0.092902 -0.184303 -0.182701 -0.031088 -0.055119 0.044783 -0.032693 -0.064508 0.020722 0.007322 0.194149 -0.037489 0.101891 0.069495 -0.006326 -0.123838 -0.002707 -0.050978 0.104856 -0.259301 0.090386 0.103932 0.159932 -0.055931 -0.038348 0.262201 -0.032311 -0.038897 0.030403 0.066102 -0.078192 -0.020186 -0.003782 -0.006044 -0.044504 0.035974 -0.022793 -0.057618 -0.041420 -0.219348 0.033677 0.190477 -0.177400 0.032450 0.051615 -0.059118 -0.009289 0.130325 -0.067958
didn 0.197830 -0.202337 0.295006 -0.043693 -0.433170 0.051348 -0.099142 -0.147900 -0.051782 -0.423652 -0.429845 -0.216243 0.476722 -0.316772 -0.293158 -0.088804 0.259453 0.205291 0.131759 0.116234 0.118619 -0.181062 -0.165878 -0.721825 0.394892 0.224823 -0.425530 0.570176 0.519223 0.004590 -0.140698 -0.228669 0.106444 0.158407 -0.425189 -0.045730 0.246725 0.011539 0.406720 0.126377 0.608892 -0.322313 -0.869951 0.144694 -0.725799 -0.290987 0.273313 0.242088 -0.056636 0.058642
look 0.334953 0.140394 0.277827 -0.526290 -0.189151 -0.430619 -0.191282 0.063690 0.030305 0.099839 0.168813 0.197309 0.053749 -0.089745 -0.281461 0.162187 -0.104266 0.208645 0.148748 0.253242 0.190530 -0.020020 -0.235049 -0.295000 0.250361 0.199809 0.043720 0.471505 0.033433 0.134627 -0.376060 0.042579 0.080218 0.098081 -0.452731 -0.023015 0.166885 0.021677 -0.049683 -0.000621 0.219385 -0.312303 -0.160596 -0.126247 -0.180683 0.134651 0.209735 -0.128842 0.050603 0.097019
must 0.264376 -0.096673 0.323665 0.108578 -0.178958 -0.023563 0.038590 0.199863 -0.060434 -0.033850 -0.162840 -0.177656 0.093867 0.040028 0.208013 -0.041266 -0.022552 0.402818 0.378461 -0.288224 0.058954 -0.033905 -0.003895 -0.184372 0.212860 0.136128 -0.415803 0.464947 0.190817 0.281203 -0.401913 -0.065703 0.075688 0.354097 0.062001 0.151116 0.176339 0.163240 0.264216 0.447466 0.487461 -0.236283 -0.214949 -0.331024 -0.439820 0.160770 -0.092024 -0.145193 0.178803 -0.031903
played -0.004357 0.119945 0.052462 -0.339448 0.140895 -0.066171 0.158012 0.289082 -0.001711 0.305835 0.066429 0.339052 -0.069057 0.169447 0.144022 -0.160828 -0.155477 0.372360 0.051112 0.242396 -0.232121 -0.121661 0.136502 0.363235 -0.344674 -0.020616 0.706734 -0.006012 -0.170990 -0.029159 0.057087 -0.052192 -0.006080 -0.077862 0.166790 -0.002834 0.281594 -0.099690 -0.293409 0.250849 -0.419118 0.089828 0.379731 -0.210511 0.132133 0.554423 0.089679 -0.164719 0.032169 0.066040
together 0.096351 0.042594 -0.104562 -0.223640 0.076668 -0.060111 -0.170037 -0.067711 -0.129455 -0.029407 0.027915 -0.025253 -0.116106 0.103767 0.245710 -0.048078 -0.131686 -0.085604 -0.002472 0.071636 -0.020457 0.049136 -0.059417 -0.035703 0.025050 0.062004 0.214448 -0.068158 -0.096784 0.047767 -0.109242 0.096549 -0.042816 -0.206878 -0.109501 0.004279 -0.155859 -0.072390 -0.181256 0.067327 0.014777 0.019024 0.072736 0.011068 0.134692 -0.002393 -0.204003 -0.066037 0.069803 0.044843
tv 0.241586 0.027893 0.164533 -0.385554 -0.119539 -0.171274 -0.123778 -0.106830 0.008466 0.119576 0.200932 -0.014911 -0.072700 -0.017662 -0.103477 0.049237 -0.228896 0.253178 0.062586 0.023524 0.134416 0.034384 -0.046024 0.016616 -0.041416 0.214105 -0.051146 0.215616 -0.136135 0.181503 -0.242275 0.146671 0.087935 -0.038848 -0.108031 -0.070947 0.167361 0.020506 -0.000987 0.168459 0.115229 -0.327261 0.056875 0.081039 0.038705 0.142066 0.138075 -0.178535 0.062212 0.095296
